432 100
plane 0.76716 -0.65529 0.22048 0.15657 -0.30591 -0.29517 -0.13069 0.026503 0.71326 0.17283 -0.34977 -0.12402 -0.090104 -0.23827 0.040024 0.04363 -0.20766 -0.16614 -0.50685 -0.025285 0.056858 -0.2133 -0.54951 0.21258 0.082753 -0.0602 0.32413 0.45271 0.34096 0.1694 0.017695 0.65996 -0.088249 -0.19398 -0.44975 -0.47446 0.42261 0.75905 -0.35373 -0.48861 -0.41786 0.35995 0.70604 0.32593 0.46068 0.5126 0.84257 0.59634 -0.27503 -0.09165 0.014966 -0.30262 -0.17096 0.44004 0.17901 -0.014215 -0.32605 0.21443 0.35617 0.41561 0.38227 -0.42658 0.19165 -0.25396 0.12112 -0.062703 -0.47595 0.23414 0.57315 -0.31599 0.069065 0.51009 0.12833 0.056322 0.45694 -0.11301 -0.10344 0.44191 -0.13839 0.15137 0.46866 0.29392 0.021664 -0.45867 -0.72254 -0.54339 -0.13948 0.49557 0.52209 0.52477 -0.26972 -0.30943 0.21797 -0.13504 0.12977 0.083956 -0.2938 -0.21761 0.86343 0.087265
stupid 0.22489 -0.1023 0.24772 -0.17014 1.945E-4 0.029165 0.17282 0.096545 0.88159 0.13815 -0.24609 0.07572 0.078439 0.40727 0.55787 -0.64959 0.34296 -0.49771 -0.29694 0.17864 -0.03299 0.48556 0.16834 -0.084857 0.26213 0.87077 0.12739 0.15318 -0.18455 0.3319 0.54465 -0.38748 -0.44534 0.15708 -0.096993 -0.14161 0.14688 0.41393 0.14238 -0.88684 -0.18619 -0.26476 0.047968 -0.55483 -0.30691 0.076077 0.19279 0.56249 0.032217 0.41702 0.23844 -0.32896 -0.28136 0.32131 0.04842 0.13675 -0.21976 0.021068 -0.28861 0.21031 0.21211 -0.23366 1.0802 0.22487 0.33156 -0.3287 -0.46404 -0.25968 -0.37237 0.1432 -0.34686 -0.4012 1.0207 -0.0060902 -0.45219 -0.07172 -0.079578 -0.039661 0.13584 0.1502 0.7325 -0.11318 0.39478 0.54438 0.19593 -0.090888 -0.14026 0.20921 0.68273 0.10232 0.33942 -0.55868 0.33186 0.14681 -0.041263 -0.066824 -0.10084 -0.030051 0.12289 0.082822
egg 0.017752 -0.039001 -0.32631 0.1942 0.26045 -0.66779 -0.30059 -0.33866 0.24551 -0.20784 -0.34626 0.55503 0.61526 -0.20846 -0.26281 -0.5515 0.29164 -0.74563 -0.47983 -0.66506 -0.71948 -0.045516 -0.61528 -0.0042362 0.97034 -0.39105 -0.27754 9.4991E-4 0.38029 0.73716 0.28234 -0.037498 -0.62222 0.24333 -0.29653 -0.29055 -0.060972 -0.47406 0.30185 0.058353 0.11451 0.64966 0.4167 -0.072259 -0.25377 0.22355 -0.24428 0.63045 0.27012 -0.86176 -0.21028 -0.66107 -0.38645 0.11926 -0.67985 0.20785 -0.058174 -0.48648 0.18131 0.34095 0.27516 -0.51951 0.63638 0.3184 0.20949 -0.74581 -0.097488 -0.61613 -0.39462 0.36121 0.17553 -0.1554 0.098941 0.36771 -0.16682 -0.1352 0.27185 0.30991 -0.074281 0.18626 0.6315 -0.34461 0.49184 -0.043742 -0.29633 0.45585 -0.46693 -0.36719 -0.32638 0.45663 0.16867 -0.73903 0.21968 0.39923 -0.31289 -0.088401 -0.70369 0.24276 0.21402 0.21205
year -0.30228 0.1423 0.026448 -0.30444 0.15028 0.27067 -0.27511 0.022052 -0.11219 -0.11858 -0.47091 0.12532 -0.2837 0.2332 0.15103 -0.59564 0.065902 -0.21532 -0.050138 -0.12414 -0.010654 -0.12285 -0.23707 0.026269 0.079074 -0.080471 0.1771 0.26805 -0.060599 0.12291 -0.16229 0.49719 0.44476 -0.29967 -0.048496 -0.14084 0.4374 -0.083002 -0.14792 -0.078236 -0.60315 0.21703 0.18615 -0.14914 -0.038264 -0.36716 -0.089399 0.77862 0.11646 0.14566 0.3201 -0.14042 0.14387 0.29762 -0.16468 0.11308 0.041984 0.083082 0.34744 0.17111 0.1388 0.36202 0.32457 0.12541 0.36349 0.033369 -0.19982 0.023349 -0.15619 -0.019407 -0.13176 0.21277 0.18974 -0.12255 0.069337 -0.0084227 0.051367 0.16217 0.04195 0.48073 -0.077878 0.033238 -0.096276 0.11288 0.24069 0.26081 -0.28772 0.74327 -0.56245 0.21503 0.33821 -0.22568 -0.11365 -0.072844 -0.37274 -0.01632 -0.0031202 -0.31851 -0.034245 -0.25054
psychiatry -0.71228 0.24334 0.085043 -0.28484 0.16424 0.17646 0.45053 -0.42997 0.58052 -0.40422 -0.13811 -0.0088603 -0.21291 -0.15085 0.068403 -0.48488 0.041945 -0.33339 -0.17696 -0.11904 -0.22907 -0.90296 -0.28219 -0.067252 -0.06989 0.26199 0.41657 0.32028 -0.65821 0.21988 -0.017288 -0.78887 0.27659 0.48527 -1.4478 0.066047 -0.15445 0.091111 -0.0058441 -0.91511 0.27441 1.1265 0.21135 -0.26394 0.38673 -0.59946 0.22801 0.029213 0.26601 1.1096 -0.032408 -0.033573 -0.13207 -0.021582 -0.050322 0.29991 -0.067513 0.064505 0.73062 0.78357 0.5363 -0.13879 0.1825 -0.17857 0.35217 -0.18658 0.47217 -0.068781 -0.39558 -0.18095 -0.072135 0.54158 -0.014597 -0.16459 0.15438 0.22844 -0.54945 0.5307 0.2454 0.37727 0.20937 0.13297 0.49692 0.15106 0.18659 0.49025 -0.15197 -0.50482 0.84219 -0.73499 0.11912 -0.70026 -0.075017 0.34359 -0.48984 0.044499 -0.56471 -0.29211 0.0164 -0.028415
asylum -0.48399 0.0056979 0.23905 -0.018602 -0.20472 -0.41971 -0.48444 0.41243 0.82571 -0.60402 -0.2507 0.52983 -0.044912 0.28337 0.33659 -0.46948 -0.064122 -0.34426 -0.50736 0.33379 0.33731 -0.59797 -0.44816 -0.41867 0.284 0.016073 0.51714 0.19565 -0.090405 -0.011829 -0.39554 -0.030015 -0.30421 -0.37801 -0.92859 -0.28735 0.64845 0.029363 -0.06903 0.12958 -0.34806 -0.17102 -0.43907 -0.49348 0.31611 0.14598 0.28644 0.97494 -0.50459 0.1984 -0.32066 0.052695 -0.067836 0.56706 0.67144 -0.085589 0.48704 0.7764 9.4724E-4 -0.14745 0.92076 -0.19471 -0.056276 -0.47692 -0.060026 -0.010304 0.0984 -0.35194 -0.54195 0.28496 -0.03948 0.37059 -0.045471 0.42229 0.10027 0.10914 -0.37422 0.70297 0.43004 0.76433 0.37514 0.070241 0.0014675 0.10976 -0.19579 -0.10025 0.13695 0.27163 -0.10256 -0.15958 0.24804 -0.23966 0.2466 0.73193 0.33235 -0.46945 0.1386 -0.48081 0.31661 -0.69973
manslaughter -0.65165 -0.33595 0.46346 -0.38199 -0.40807 -0.28171 -0.035143 -0.6452 0.69861 0.10135 -0.91544 0.21403 0.19531 0.90624 0.29322 -0.40122 -0.15826 0.11732 -0.29969 -0.25268 0.18784 -0.88679 -0.34535 0.3249 0.57411 0.3971 1.2314 -0.091354 0.12636 0.52124 0.314 -0.13733 -0.13773 -0.084514 -0.26562 0.1646 0.29546 -0.15567 -0.021257 -0.73556 -0.3255 0.54811 -0.0043212 0.067453 -0.39672 -0.22194 -0.23348 0.24352 0.25501 0.44 -0.060037 -0.3991 -0.13935 -0.25573 -0.61438 0.16409 -0.23974 -0.18801 -0.089195 0.27462 0.53995 0.50437 -0.30247 -0.15578 -0.12376 -0.076333 0.15119 0.025874 -0.47371 -0.15185 0.74554 0.3801 0.27173 -0.091206 -0.16868 0.22017 -0.9858 0.5964 0.58612 0.29238 -0.30529 0.036661 0.93017 0.12027 -0.2673 0.39098 0.71095 -0.15926 0.17926 0.010053 -0.21297 -0.20082 -0.30926 -0.17087 0.15126 -0.0057026 -1.1388 0.13763 0.69655 -0.90768
music -0.4324 -0.07809 -0.35841 -0.29748 0.18668 0.53731 0.079898 0.0066825 0.11781 0.02928 -0.05319 0.13994 0.36734 0.10478 -0.48794 -0.52881 0.27615 -0.4469 -0.60282 -0.31994 -0.059199 0.14731 -0.76146 -0.12994 -0.049557 -0.41551 0.2861 -0.15917 0.2047 0.59457 -0.15371 -0.051477 -0.19476 -0.21223 -0.29578 -0.32781 -0.2719 -0.012342 -0.49332 -0.83189 -0.3701 0.54147 0.46274 -0.51974 0.57405 0.16279 0.39054 -0.1556 -0.8918 0.49325 0.8176 0.33547 0.077382 0.042224 -0.19928 0.17412 0.60952 -0.087525 0.019162 -0.060412 0.71088 -0.34519 -0.23741 0.098497 0.046916 0.19066 -0.26582 -0.094933 -0.16491 -0.30398 0.031343 -0.053732 0.35649 -0.01567 -0.33479 -0.037064 0.14058 0.051485 -0.20911 -0.52547 0.54413 -0.54639 0.58458 0.098242 0.2165 0.33898 -0.19566 0.041867 0.04182 -0.15086 -0.019627 -0.22999 0.20533 0.23117 0.061955 0.18968 -0.16205 -0.32124 -0.029761 -0.2456
record -0.37668 -0.65145 -0.44118 -0.35504 0.071453 -0.015759 -0.43355 -0.3633 -0.28853 -0.088259 -0.44135 0.21752 0.60228 0.2752 0.083105 -0.24895 0.30637 -0.46166 0.41923 0.25961 0.10021 0.21858 -0.58473 -0.13734 0.041696 -0.15886 0.65944 0.47713 -0.12622 0.086541 -0.40511 -0.030348 0.13186 -0.45763 -0.16261 0.063587 0.021006 -0.35814 -0.18586 -0.15859 -0.28165 -0.021587 0.042736 0.70183 0.5739 -0.31663 0.60219 0.78447 -0.061565 0.11625 0.67569 -0.28781 -0.34217 -0.22881 -0.20422 -0.047109 -0.19739 -0.30296 0.55222 -0.024164 0.20401 -0.15672 0.50872 0.048871 -0.097555 -0.04553 -0.22081 0.064405 0.42007 -0.16271 0.092613 -0.060646 0.39489 -0.1961 -0.30635 0.043811 0.061514 0.0064445 -0.46986 0.42082 0.51147 -0.33733 0.42205 0.078219 0.41313 -0.1114 0.049053 0.63866 -0.20264 -0.17233 0.17894 -0.27695 0.037322 -0.46831 -0.024819 -0.20291 0.21185 -0.039947 -0.33649 -0.11039
energy -0.27412 -0.20869 0.11896 -0.43474 -0.022398 0.11648 -0.1175 -0.29248 -0.1604 -0.079357 -0.10425 0.40527 0.26293 -0.38119 0.27067 0.20627 -0.28781 -0.45514 -0.19796 -0.75149 0.45308 0.10645 0.22435 0.4146 -0.53288 -0.36885 -0.048736 -0.079921 -0.78356 0.35579 -0.33777 0.60095 0.083906 0.85173 -0.37879 0.33553 -0.096959 -0.091963 -0.081089 -0.57514 0.099038 -0.2856 -0.03159 -0.072826 0.25984 0.12524 0.16675 0.56607 -0.065293 0.082893 0.11183 -0.12922 -0.25723 0.033261 -0.35441 -0.010667 -0.21155 0.0041283 0.19753 0.078058 0.73541 0.11759 0.39795 0.2655 0.24297 0.066013 -0.74793 -0.54154 -0.42487 -0.36702 0.28483 0.36539 0.35388 0.58923 -0.44672 0.065468 0.70604 0.19469 -0.28014 -0.065301 0.26472 0.2777 0.18819 -0.084939 -0.25585 0.065517 -0.47191 0.77135 0.21358 -0.14561 0.39746 -0.77199 -0.029122 -0.5914 -0.20437 0.34739 -0.20837 -0.3407 0.1733 -0.19595
announcement 0.22002 -0.22871 -0.58094 -0.12464 -0.033136 0.44726 -0.095507 -0.034013 -0.15548 0.41669 -0.2521 0.034518 -0.067277 -0.097542 0.27123 -0.46845 0.24768 0.035134 0.2773 -0.44143 0.27554 0.18506 -0.26042 0.12409 -0.1941 -0.33835 0.7006 0.0014955 0.33248 -0.3425 -0.093099 0.3686 -0.24312 0.08814 -0.46146 -0.61793 0.074984 -0.061456 0.23286 -0.14717 0.03517 0.37237 0.34273 0.14384 -0.4682 -0.0069844 -0.064338 0.62964 0.16289 0.05174 0.71143 -0.43836 -0.31383 0.54237 -0.22691 -0.31609 -0.38903 -0.1336 0.4177 -0.054926 0.58781 -0.20306 0.049415 0.52851 0.080572 -0.23747 -0.41973 0.3094 -0.22461 -0.44038 -0.24691 0.26374 0.2437 0.14561 0.12844 -0.15043 0.15628 0.51311 0.28608 0.15236 -0.30726 0.32071 -0.25256 0.18252 0.089819 0.06007 -0.32934 0.2762 0.20597 0.21116 0.20976 0.080482 -0.096992 0.21508 0.28406 -0.39243 0.029684 -0.10931 0.41472 -0.62328
mile 0.074176 -0.12839 0.2708 -0.1045 -0.15604 -0.64465 -0.48456 -0.45359 0.010144 -0.11328 -0.0016069 -0.54417 -0.1533 0.27371 0.10094 -0.39191 0.19187 -0.35488 -0.21428 -0.29385 0.40479 0.27092 -0.15708 -0.24437 -0.22557 -0.2148 0.17954 0.53719 -0.027735 0.70798 -0.29215 0.31085 0.13476 0.25178 -0.91112 -0.045487 0.14799 0.037924 0.37358 0.41979 -0.87964 0.44321 0.48254 0.010132 0.33175 0.019383 -0.11476 0.78417 -0.050838 -0.70957 -0.30952 0.49862 0.40799 0.13093 -0.34823 0.60658 -0.0049087 -0.40376 0.27675 -0.31646 0.38037 0.42782 0.45347 -0.24451 0.75333 -0.71146 0.015705 0.22357 0.046587 0.16012 -0.31854 0.24575 0.069711 -0.31214 -0.14372 0.27022 0.40368 -0.070675 0.476 -0.19587 0.054857 0.22702 0.37555 -0.17248 -0.16361 -0.55357 -0.32872 0.70068 0.64734 0.041229 0.019247 0.0056086 0.022971 -0.91632 0.1067 -0.13931 -0.64636 -0.15338 0.4831 -0.10415
airport 0.011746 -0.56053 0.423 -0.040189 -0.23632 -0.21063 -0.67466 0.14735 0.72429 0.0093879 -0.33326 -0.6196 -0.1268 -0.14075 0.13047 0.038971 -0.037042 -0.19749 -0.30044 0.040164 0.17334 -0.21634 -0.49957 -0.068641 -0.20538 0.18036 0.14052 0.15575 0.16651 0.1227 0.14894 0.57992 0.30194 -0.3147 -0.84781 -0.17106 0.57461 0.99622 -0.089414 -0.61264 -0.62229 0.33724 0.62849 0.14634 0.59561 0.20881 0.61085 0.20741 -0.78146 -0.33823 -0.22872 -0.47158 0.090408 -0.015196 -0.1942 -0.074673 0.038434 0.39386 0.41418 -0.36057 0.53198 -0.14336 -0.047905 0.071766 -0.053966 -0.2448 -0.42389 -0.064989 0.22701 -0.24566 0.13101 0.31352 -0.079274 0.1647 0.2539 0.15155 0.20403 0.29701 0.49417 0.48191 0.22169 0.6501 0.20016 -0.46267 -0.090034 -0.44349 -0.34898 -0.016373 0.11894 0.55201 -0.27754 -0.15134 0.17914 0.060376 -0.020829 0.39485 -0.20591 -0.33229 0.9436 -0.35389
population -0.45668 0.20108 -0.25915 -0.34675 -0.096807 -0.12044 -0.66528 -0.46759 0.54622 -0.36771 -0.18988 0.5942 0.36724 0.51099 -0.21334 -0.21475 0.0029293 -0.14835 -0.27386 -0.038289 -0.14838 -0.2362 0.098171 -0.070914 -0.29078 0.4928 0.50795 0.0044229 -0.066392 0.77708 -0.069413 0.35541 0.082598 0.26548 -0.47538 0.17495 -0.092834 -0.36553 -0.24082 0.10997 -0.04562 0.23482 0.091755 0.23783 -0.37688 0.32067 0.30386 0.36947 -0.64712 -0.47253 -0.43909 -0.26512 -0.10273 1.0333 -0.1859 0.3754 0.074592 0.1696 0.37918 -0.24089 0.66687 -0.34239 0.25403 -0.85713 0.78277 -0.29295 -0.27127 -0.1978 0.56834 0.44966 -0.0021855 0.60946 0.04098 -0.51083 0.24053 0.052075 0.32395 0.10238 0.10519 0.52979 -0.053344 0.13556 0.20326 -0.17151 0.2379 0.13877 0.0039576 0.42176 0.10538 0.042619 0.36101 -0.77242 0.25817 -0.14145 -0.38219 -0.22502 -0.035242 -0.31328 0.20326 -0.13359
planning 0.17192 0.042822 -0.50673 0.026038 0.31797 0.47278 -0.23504 -0.25324 -0.13531 -0.11667 0.034297 0.19132 -0.18725 0.12154 0.51728 -0.012589 -0.022548 -0.071208 -0.25959 -0.27415 -0.063288 -0.23964 -0.29297 0.052895 0.058404 0.024546 0.59008 -0.034266 -0.32575 -0.08487 0.013265 0.24372 0.20697 0.097766 -0.30972 -0.032512 0.12928 0.29362 0.15127 0.10463 -0.5982 -0.080438 0.16307 -0.037998 0.16186 0.039021 0.12496 0.4345 -0.2605 0.68959 -0.07932 -0.53264 -0.16791 0.14802 -0.5683 -0.25103 -0.076343 0.39548 0.0037534 0.047513 0.54706 -0.34048 -0.0021673 0.38214 0.3386 0.050854 -0.32839 -0.34325 -0.42219 -0.1815 0.21515 0.57946 0.37745 0.034658 0.018219 0.31431 -0.10153 0.0024345 0.01475 0.15889 -0.08128 0.31072 0.30928 0.072214 0.030564 -0.30508 -0.1279 0.23915 0.38772 0.23007 -0.25337 0.10433 -0.2479 0.24414 -0.082368 -0.12851 0.12003 -0.2916 0.17534 -0.28597
canyon -0.10696 -0.25658 0.50454 0.26985 0.15868 -0.54874 -0.40369 -0.51637 -0.30893 0.26637 -0.068447 -0.4843 0.74341 -0.055704 -0.46092 -0.42234 -0.38066 -0.25457 -0.092719 -0.18122 -0.37969 -0.16097 -0.47732 0.068485 -0.1397 0.070922 0.2633 -0.026045 0.084648 0.50207 -0.38455 -0.12588 -0.068024 -0.060511 -0.44226 0.20193 0.32333 0.13419 0.25655 0.046465 -0.3916 -0.068453 0.55174 -0.050667 0.7423 0.13963 -0.16694 0.18393 -0.40912 -0.19867 -0.033831 0.20513 0.36412 0.16406 -0.16267 0.043622 -0.0094373 -0.3234 0.24539 -0.40586 0.23264 0.15617 0.0287 0.051007 0.32178 -0.83519 0.36982 0.23138 0.11546 -0.27282 -0.010161 0.37563 -0.054548 0.11409 -0.73705 0.39129 0.21875 0.5728 0.36966 0.17114 0.55579 0.29753 0.52687 0.15604 -0.29012 -0.26318 -0.55477 0.78146 0.4901 -0.1389 -0.79017 -0.78788 0.79097 -0.095016 0.26707 -0.14217 -0.77099 -0.11954 0.20763 0.40922
delay 0.014325 -0.10303 -0.54819 0.14488 0.10105 -0.20066 -0.34228 -0.074195 -0.051672 -0.21953 -0.57878 -0.036493 -0.17924 -0.028985 0.37654 -0.36887 0.11489 -0.30173 -0.23252 0.064792 0.13194 -0.21216 -0.093407 0.14207 0.35773 0.3622 0.64545 -0.082564 -0.24326 -0.17787 -0.0082096 0.16258 -0.69346 0.15466 -0.43531 -0.44172 0.81223 -0.08369 0.32689 -0.2972 -0.0069694 0.0086526 -0.1457 0.19081 0.028484 0.33598 0.34278 0.60711 0.31879 0.29269 0.31413 -0.31708 -0.44195 0.19243 -0.54401 -0.043082 0.40487 -0.34591 0.31139 -0.42564 0.25202 -0.17235 0.0014005 0.85351 0.16334 -0.057259 -0.2668 -0.089343 -0.10866 -0.28486 -0.1373 0.53515 0.24368 0.064362 0.38219 0.0209 0.0045458 0.26095 0.22174 0.34852 0.1509 0.45454 0.14075 -0.10245 -0.075777 -0.055479 -0.29107 0.28519 0.098983 0.13635 0.22529 0.48985 -0.16983 -0.30472 0.45176 -0.52694 -0.21805 -0.34571 0.3618 -0.4923
size -0.033403 -0.3301 0.043674 0.016789 0.1852 0.14174 -0.44778 -0.18319 0.16194 -0.098847 -0.065721 0.058066 0.34022 0.26155 0.10425 -0.44308 -0.65426 -0.12484 -0.32738 -0.071643 -0.64659 -0.25066 0.26593 0.044021 0.16487 -0.5994 0.80495 -0.23937 -0.024318 0.23879 0.16926 0.44809 0.21115 0.078734 0.05089 0.060829 -0.19158 -3.2842E-4 0.37814 0.28678 -0.25965 0.25628 0.21528 -0.11935 0.11241 0.37188 -0.13384 0.22897 0.0041429 -0.053411 -0.27013 -0.57141 0.17066 0.86777 -0.15162 0.34804 -0.32842 -0.39325 0.49572 -0.0039897 0.57376 0.094347 0.38578 0.24545 0.32076 0.11039 -0.7856 -0.045514 0.39855 -0.06892 -0.27923 0.40764 0.34579 -0.25741 0.32886 0.29629 0.57804 0.072459 -0.10923 0.3153 0.056153 -0.25796 0.12261 -0.068046 0.33268 0.15378 0.13976 -0.21385 0.42107 0.59332 0.41061 -0.46877 0.22408 -0.52559 -0.29236 -0.08869 -0.42606 -0.052573 0.23142 0.63963
peace -0.086945 0.15485 -0.080778 -0.51115 -0.046221 -0.5235 -0.19156 -0.074044 0.50911 0.49314 -0.81792 -0.02227 -0.08494 -0.33934 0.49641 -0.12309 -0.30313 -0.42168 0.038075 -0.52388 -0.19486 -0.34756 -0.60111 0.29787 -0.35497 0.56579 0.69276 -0.62777 -0.23426 0.40768 0.12535 -0.26651 0.035796 0.46379 -0.38325 -0.88951 -0.17327 -0.41343 -0.27595 -0.090401 0.55703 0.27551 0.32322 0.34175 0.66645 0.73004 -0.15741 1.1705 -0.61678 0.1979 0.11979 -0.4153 0.71634 0.63665 -0.059917 -0.099626 -0.14459 0.49469 -0.74139 -0.19277 0.40097 -0.30908 0.43397 0.075641 -0.067009 -0.061519 0.70724 0.028351 -0.39699 -0.52552 -0.27723 0.43156 0.46799 0.067998 -0.31482 0.18723 0.25544 0.091461 0.090098 0.30816 0.53088 -0.10989 0.014091 0.1344 0.15733 0.079052 -0.27559 0.52899 -0.31421 -0.35353 -0.27323 -0.38518 0.37602 0.43099 0.16399 0.098011 -0.017421 -0.25135 0.065881 -1.2139
science -0.31759 -0.03678 -0.14155 0.078962 0.18562 0.19715 0.48793 -0.0063796 0.23001 0.34037 -0.71516 0.27331 0.13778 -0.2368 0.31606 -0.20463 -0.33539 -0.45604 0.11298 -0.11397 -0.33586 -0.53505 0.25866 0.15417 -0.052287 0.059271 0.13532 0.026377 -0.62847 0.38025 0.15357 0.079134 0.039057 0.35303 -0.82498 -0.40175 0.25705 -0.63312 -0.043224 -0.66185 0.0022175 0.49604 0.10654 -0.38977 0.3355 -0.56786 0.35949 0.47906 0.12849 0.5578 0.47151 0.015407 -0.22317 0.53682 0.27284 0.48627 -0.011582 0.1918 0.31725 0.55674 0.29081 -0.39739 0.2556 -0.21671 0.18307 -0.17876 -0.51698 -0.54458 -0.33858 -0.052999 -0.081491 0.23184 0.052319 0.1231 -0.51584 0.54488 -0.095859 -0.13328 -0.087773 -0.79219 0.011138 0.13266 -0.0079518 -0.053212 -0.10871 -0.38044 -0.13919 0.094193 0.34981 -0.39497 0.031185 -0.80258 0.16385 0.1947 0.022602 0.070241 -0.45828 -0.62835 -0.5454 0.10129
dawn -0.06409 -0.19481 0.02711 0.39284 -0.077039 -0.39615 -0.03921 0.011384 0.28345 0.76019 -0.32123 0.090495 -0.12096 0.25955 0.21532 -0.37636 0.071586 0.064765 -0.87428 -0.23845 -0.32551 0.084986 -0.49947 -0.39085 -0.024648 0.43845 0.5143 -0.16174 -0.18981 0.0074621 0.011871 0.30804 0.23484 -0.24185 -0.60467 -0.18776 0.44668 0.02122 -0.065314 0.051038 -0.34997 0.16767 1.0814 -0.028228 -0.2704 0.40471 0.61883 0.53192 -0.35488 -0.46444 0.4763 -0.098611 0.11982 -0.20183 -0.52892 0.040107 -0.16278 -0.10401 0.024376 -0.10086 0.40676 0.17972 0.24191 -0.34836 -0.17381 -0.7563 -0.08865 0.34167 0.19245 -0.35413 -0.40033 0.14941 0.061049 0.059886 -0.21214 -0.12392 0.25306 0.39262 0.57916 0.0015321 0.2468 0.41172 -0.070877 0.49553 -0.18805 -0.29457 -0.087076 0.29938 0.16202 -0.019808 -0.14968 0.18795 0.47232 0.22393 0.28363 -0.19496 -0.23019 -0.046968 0.14363 -0.37807
brother 0.22537 0.14999 0.44024 0.058852 -0.043684 -0.077148 0.048567 0.049009 -0.15837 -0.081281 -0.75727 0.31062 -0.54673 0.7632 0.19509 0.27424 0.53814 0.53468 -0.43742 -0.3759 0.2075 0.061099 -0.50371 -0.10649 0.31667 -0.13851 0.88076 0.36727 0.074426 0.23001 0.016439 -0.10505 0.24923 -0.022614 -0.7826 0.14032 0.01002 0.51691 -0.090768 -0.12685 -0.10852 0.33985 -0.27645 -0.30647 -0.44791 0.0045031 0.29061 0.2131 -0.57793 0.59412 0.14972 -0.15947 0.10664 0.12322 -0.11416 0.2076 -0.1961 -0.17833 -0.11986 0.12149 0.38511 -0.10138 0.044429 -0.12505 -0.037156 -0.097269 -0.34736 -0.50796 0.27487 -0.24857 -0.023781 0.65281 0.39491 -0.20478 -0.15504 0.0061415 -0.26887 0.20201 -0.072769 0.085113 0.75274 0.057268 -0.10094 0.33597 0.04519 0.039294 -0.047681 0.15542 -0.12932 0.02037 0.002528 -0.32185 -0.045508 -0.11228 0.023318 -0.019416 -0.9688 0.54103 0.60567 -0.51892
wine -0.2472 -0.46305 0.22857 -0.29252 0.63141 -0.1561 -0.38231 -0.0073875 0.30239 -0.15362 -0.023845 0.35079 0.17971 0.14752 -0.49271 -0.49616 -0.034287 -0.46878 -0.11517 -0.60428 -0.49443 0.063185 -0.58688 -0.14086 0.22553 -0.060304 -0.24065 -0.26757 0.10352 0.79082 -0.17077 0.54172 0.020218 0.341 -0.37788 -0.28966 -0.17385 0.0014596 -0.11029 -0.64694 -1.0029 0.2758 0.50662 -0.0606 -0.15327 0.62337 0.046207 -0.04438 -0.4716 -0.32199 0.18938 0.075929 0.69591 -0.51908 0.22753 -0.014554 -0.20506 -0.16832 0.63951 0.080987 0.43197 -0.27763 0.23076 0.27271 -0.13104 -0.3922 -0.16289 -0.37378 -0.33703 -0.022552 0.74043 0.10464 0.10373 0.34064 0.20762 -0.037653 0.048223 0.3507 0.17562 0.070762 0.7076 -0.21979 0.45587 0.26784 0.26778 0.54243 -0.16994 -0.24051 -0.2576 0.13073 -0.04402 -0.95949 -0.16964 0.058934 0.21645 -0.21166 -0.32027 -0.22022 0.50151 0.16452
object 0.49789 -0.071131 0.12914 0.12842 -0.008024 -0.087036 0.14664 -0.22385 0.17579 0.1996 -0.36711 0.13467 0.38657 -0.063084 0.3466 -0.33841 -0.34502 -0.22944 -0.19235 -0.31148 -0.30212 0.26557 0.11884 0.21875 -0.35478 -0.090354 0.71966 0.031161 0.075281 0.071076 -0.21701 -0.16064 -0.09349 0.21483 -0.48736 -0.11473 0.32311 -0.14804 0.080262 -0.2404 -0.18465 0.089258 0.099659 -0.49167 0.77014 0.24074 -0.0024643 0.44209 -0.30643 0.32528 -0.022306 0.20642 -0.032293 0.8003 0.16257 -0.023152 -0.049243 -0.43652 -0.0084615 0.16072 0.11038 -0.0351 0.50282 0.24683 -0.0055478 -0.41957 -0.30178 -0.27374 0.03478 -0.055773 -0.12006 0.31213 0.33974 0.10092 0.04015 -0.26768 0.040161 0.5623 0.0044073 -0.12261 0.40618 -0.37231 0.21274 0.023114 0.13434 -0.2826 0.15191 0.096639 0.55429 0.20766 0.44061 -0.27587 0.26028 -0.17793 0.29938 0.13388 -0.12951 0.11069 0.35358 -0.025535
attitude -0.046821 -0.36441 0.39384 -0.54096 0.4474 -0.49617 -0.20986 -0.099012 0.30965 0.13612 -0.043916 0.063781 -0.059258 0.44928 0.72338 -0.098548 -0.030917 -0.53035 -0.41264 0.1537 0.051005 0.33031 -0.02237 0.23224 -0.25499 0.28054 0.30544 0.14687 -0.37281 0.013785 0.11963 -0.38709 0.094424 -0.22145 -0.34096 -0.47708 -0.48004 0.17772 -0.038943 -0.31515 0.18286 0.27756 0.036775 -0.38805 -0.075325 0.16142 0.050883 0.22702 -0.092699 -0.09184 0.53112 0.062766 -0.42451 1.0155 0.18924 -0.32322 -0.026982 -0.21206 -0.034523 0.18067 0.35147 -0.023968 0.41571 -0.10313 0.33792 0.29718 -0.53536 -0.21269 -0.39879 -0.24561 -0.10574 0.15458 0.24015 0.056269 0.16878 0.23544 0.30981 0.16827 0.35087 -0.12182 0.38738 0.14382 0.16511 0.28547 0.43227 0.3847 -0.0031236 -0.070909 0.77034 -0.26323 0.23697 -0.25878 0.12345 0.1175 0.067987 -0.39901 -0.22407 -0.27591 0.091593 -0.17072
treatment -0.57771 -0.005926 -0.17028 0.44815 0.11892 -0.16902 -0.37078 -0.30945 0.61277 -0.38579 -0.099404 0.3521 -0.17826 -0.096271 0.16284 -0.18415 0.15348 -0.71005 -0.51159 -0.3401 0.39009 -0.036052 -0.39932 0.24577 -0.31048 0.36995 0.056869 0.31592 -0.69796 0.33424 -0.33362 -0.052299 -0.08378 0.30767 -0.6703 0.15036 0.4346 0.30548 0.18664 -0.017439 0.064433 0.16897 -0.059824 0.31075 -0.0016721 -0.040743 -0.19391 0.43421 0.39471 0.029473 0.20924 0.026336 -0.19031 0.21112 0.10414 -0.12405 0.36855 -0.33531 0.29058 0.19601 0.60373 -0.24048 -0.20285 0.085207 0.64728 0.12181 0.18823 0.013697 -0.5237 -0.029632 -0.17352 0.37081 0.11122 0.22193 0.13562 0.59563 -0.095169 0.79886 -0.1964 0.58483 -0.097742 0.27448 0.5028 -0.33309 -0.057527 0.61166 0.25236 -0.46677 0.018661 -0.34233 0.087713 -0.25945 -0.028341 0.46166 -0.12409 -0.45231 -0.31408 -0.20125 0.17785 -0.49584
flight 0.13224 -0.75944 0.14224 -0.031877 -0.34511 -0.16623 -0.34236 0.5597 0.78291 -0.11894 -0.70493 -0.19579 -0.33217 -0.219 0.032017 0.035095 -0.18101 -0.46379 -0.20241 0.42548 -0.028567 -0.44948 -0.36589 0.39234 0.24812 0.055872 0.20923 0.3116 -6.2334E-4 0.27417 0.12775 0.74857 0.060204 -0.27257 -0.30325 -0.41545 0.59026 0.78322 -0.16604 -0.53811 -0.42137 0.77066 0.33383 -0.026509 0.43588 0.39089 0.80229 0.45387 -0.37356 0.04717 0.18457 -0.37645 -0.15429 0.54252 -0.040232 -0.14422 -0.3475 0.042695 0.31401 -0.053515 0.29621 -0.49927 0.31022 0.049904 0.086067 -0.081275 -0.69896 0.23084 0.6576 -0.1483 0.28501 0.52166 -0.45275 0.13566 0.42672 0.20623 0.1146 0.22597 0.25304 0.093437 0.44802 0.58107 0.18056 -0.51702 -0.6358 -0.1272 -0.044716 0.20359 0.3856 0.64087 -0.54025 0.072239 0.065355 -0.073846 -0.25561 0.13591 -0.51735 -0.44581 0.38832 -0.18086
forest 0.11148 -0.028486 -0.28822 0.20984 -0.070922 -0.3526 -0.73603 -0.2313 0.059338 0.24434 0.13239 0.39943 0.72358 0.10985 -0.20678 -0.032185 -0.40212 -0.1029 0.25731 -0.3375 -0.10424 -0.054598 -0.18985 0.21309 -0.49525 0.218 0.35106 -0.36002 -0.094372 0.67341 -0.055189 0.22904 -0.044925 0.083535 -0.28976 0.69727 0.044159 0.15683 -0.0046082 -0.11221 -0.23565 0.11259 0.83527 0.10694 0.55581 -0.077168 0.092439 0.47298 -0.43268 -0.044491 -0.69144 -0.40084 0.18682 0.26193 -0.55038 0.3397 0.11768 0.15254 0.047971 -0.18 0.50814 0.38296 0.16016 -0.34052 0.26363 -0.36929 -0.036942 0.042469 -0.014835 0.45936 -0.028264 0.36754 0.31253 0.23868 -0.55223 0.85997 0.56379 0.75159 0.20857 -0.058836 0.72342 -0.073476 0.32957 0.070575 0.25297 -0.082487 -0.42951 0.61435 0.37471 -0.0098804 -0.36638 -0.86949 0.44189 0.10775 0.17911 -0.32595 -0.45868 -0.13495 0.088445 -0.14105
abuse -1.0691 0.24329 0.17375 -0.34129 -0.38737 -0.071508 -0.18311 -0.31447 0.41136 -0.1444 -0.57063 0.0098861 0.45011 0.64544 -0.025984 -0.1692 0.56645 -0.3683 -0.75756 -0.33953 0.084274 0.084014 0.064078 0.50916 -0.055465 0.049919 0.24743 0.1682 -0.094202 -0.27597 0.43336 -0.36258 0.31859 0.022023 -0.286 0.16974 0.22032 0.19232 -0.25131 -0.13791 0.23556 0.30081 -0.36416 -0.19188 -0.030363 -0.1012 -0.50641 0.50957 -0.083195 0.45152 0.040007 0.017004 -0.27909 0.064681 0.13471 0.23607 0.17925 -0.23729 0.64944 -0.23785 1.0187 -0.004027 -0.1843 -0.24982 0.41001 -0.55798 -0.46865 -0.19175 -0.58562 -0.508 0.50824 0.59596 0.4583 -0.30616 -0.22884 0.88879 -0.57172 0.46873 -0.10298 0.50528 0.029274 -0.08015 0.39234 -0.1174 -0.37459 0.19244 0.46004 0.028271 0.84561 -0.18448 0.39053 -0.16161 0.10164 0.51999 -0.16093 -0.24748 0.15454 0.6052 -0.026942 -0.19935
criterion -0.17463 0.022285 -0.26187 -0.21684 0.081355 0.47266 -0.055169 0.056729 0.046589 -0.50116 -0.36445 -0.052687 0.19377 0.12296 0.69746 -0.36928 0.19511 -0.53207 0.19516 -0.029509 -0.42314 -0.11357 -0.10983 0.31306 0.25301 -0.41094 0.31708 -0.036885 0.22917 0.1728 -0.074922 -0.34312 -0.18155 0.11053 -0.55113 0.11606 0.43035 -0.12249 0.099876 -0.10056 -0.06503 0.14188 0.30417 -0.33979 0.42022 -0.39795 -0.10409 0.25733 -0.20467 0.64694 0.044609 -0.22035 -0.056381 0.5896 -0.037726 -0.10621 -0.22057 -0.48197 0.13076 0.29657 0.50782 -0.13964 -0.12848 0.172 0.031631 0.5404 -0.36656 -0.36402 -0.19016 -0.28018 -0.283 -0.12028 -0.03883 0.060051 0.31396 0.023867 0.20236 0.19405 0.083947 0.19454 0.076168 0.27248 0.48934 0.35734 0.0076735 0.25715 0.08842 -0.317 0.064258 0.23324 -0.024304 -0.46454 0.10791 -0.11554 0.011672 -0.20537 -0.20804 -0.63274 0.35614 -0.14884
sea -0.21784 -0.53617 0.06025 0.13166 0.019852 -0.56 -0.083803 0.018035 0.42299 0.21008 -0.31344 0.13965 0.64252 -0.1823 -0.26506 -0.26493 -0.44595 -0.23548 -0.3279 -0.037686 -0.26199 0.12587 -0.14937 0.2265 0.13077 0.24786 0.21014 -0.042762 -0.0429 0.5554 -0.26112 0.51103 0.0099582 0.06186 -0.43268 0.087671 0.15007 0.10907 -0.79382 -0.3251 -0.27965 -0.046437 0.31491 0.029301 0.26526 0.55074 0.111 0.90072 -0.16089 -0.26013 -0.44052 -0.15326 0.05085 0.25883 -0.3694 0.38221 -0.47522 -0.059222 0.53273 0.073146 0.26144 0.53069 0.34993 0.083758 0.44642 -0.55528 -0.40671 -0.15597 0.19601 0.047689 -0.028279 0.08782 -0.23596 0.14264 -0.45952 0.36163 0.46403 0.23532 -0.0078392 -0.53746 0.51923 -0.2302 0.43436 -0.27696 -0.36239 0.2205 -0.27732 0.76801 -0.082021 -0.186 -0.74564 -0.38365 0.62127 0.59774 0.008311 -0.35428 -0.5866 0.23381 0.18392 0.29627
dollar -0.30098 -0.9501 -0.1219 -0.75844 -0.017864 -0.096231 -0.22375 -0.71792 0.42173 -0.29123 -0.65101 0.041606 -0.1693 -0.59221 -0.3047 -0.35609 -0.33603 0.26809 -0.14896 -0.43112 0.25624 0.32244 0.15991 0.0033516 -0.58917 -0.51004 0.8143 0.46915 -0.10772 0.13031 0.02731 0.71722 -0.48692 0.046749 -0.13173 -0.40429 -0.53278 0.11068 0.057475 -0.24933 0.049343 -0.19209 0.68026 -0.12117 0.19001 0.0016154 0.28185 0.60899 -0.065642 -0.012177 0.50693 0.17215 -0.32754 -0.36257 0.20672 0.30641 -0.14769 -0.0016628 0.61986 -0.12441 -0.067456 0.11916 0.85043 0.10317 0.36529 -0.62359 -0.62508 -0.44175 -0.25438 -0.041238 -0.4081 0.0178 -0.29794 -0.068768 -0.19522 0.23984 0.26079 0.39579 -0.22504 1.0095 0.4973 0.18621 0.18506 0.70033 -0.048523 0.8131 0.48499 0.82935 -0.29104 0.084519 -0.0061233 0.024892 0.11264 -0.18329 -0.12131 -0.35292 -0.064767 -0.41506 -0.10444 -0.065918
example -0.20029 0.18781 0.2436 -0.088249 0.082499 0.27921 -0.59703 0.068356 -0.087835 -0.20558 -0.26619 0.35487 -0.18072 0.026545 0.28327 -0.38932 0.16401 -0.26795 0.47435 0.37261 -0.36634 0.1011 -0.11662 0.16996 -0.097261 -0.054409 0.51845 0.2046 -0.021704 0.13333 -0.15644 -0.15628 -0.04272 0.015058 -0.14132 -0.027097 0.42052 0.03842 0.2615 -0.53165 -0.178 -0.256 0.31164 -0.19505 0.038214 0.33596 0.12932 0.21347 -0.095793 -0.01108 0.28491 0.27008 0.15466 0.23575 -0.090296 -0.39936 -0.19253 -0.20089 0.10681 0.41703 0.75695 -0.16649 0.36179 0.023644 0.32714 -0.12969 0.049083 -0.36535 -0.078841 -0.16972 -0.15741 0.15505 0.15105 0.1511 -0.094278 0.15279 0.066978 0.08555 0.21657 0.4212 -0.039307 -0.027558 0.25838 0.1109 0.050656 0.13469 -0.27284 0.041589 0.19673 -0.14208 0.21996 -0.60765 -0.10658 -0.0023939 0.11237 -0.0084204 -0.14753 -0.030828 0.11978 0.044734
journal -0.62062 0.07947 0.010804 0.076291 -0.024131 -0.037832 0.81117 -0.18916 -0.16717 -0.39944 -0.051723 0.3719 0.063427 0.20321 0.28312 -0.79159 -0.26732 -0.45015 0.93043 -0.45447 -0.39348 -0.45452 -0.50786 -0.043933 -0.09118 0.60519 0.48253 0.67904 -0.156 0.14024 -0.055904 0.39803 -0.33021 0.62248 -0.53693 -0.28912 -0.12894 0.13343 -0.11471 -0.74478 0.1845 0.79284 0.034803 -0.42628 0.28701 -0.87378 0.48229 0.45778 0.66535 0.50355 -0.31328 -0.24514 0.24663 0.55178 -0.015096 0.49731 -0.0017876 -0.31005 0.80511 0.5993 0.42596 -1.0662 0.77499 -0.70402 0.40263 -0.42392 -0.30389 0.19471 0.16316 0.10946 -0.6471 0.05416 -0.011119 0.71231 -5.5621E-4 0.33409 -0.24393 0.52891 0.32025 0.078439 -0.169 0.5005 0.46522 -0.071694 0.1719 0.91141 0.022416 -0.078866 0.56259 -0.29902 0.089938 -0.10342 -0.51107 0.82623 0.16318 -0.13101 -0.50955 -0.43262 0.30167 0.20159
laundering -0.73577 -0.11188 0.57376 -0.70952 -0.29988 -0.13794 -0.43537 -0.8041 0.64245 -0.068891 -0.5211 -0.13105 0.38183 0.50855 -0.1263 -0.60939 -0.17056 -0.015404 -0.11272 -0.15788 0.203 -0.1622 0.10558 0.10235 0.67615 -0.11735 0.72892 0.13489 -0.45718 -0.39902 0.24551 0.21595 0.18826 0.47694 -0.01759 -0.3057 0.3803 0.43974 0.52571 -0.0099865 -0.65989 -0.31532 -0.10889 4.9797E-4 -0.21638 -0.091742 0.16731 0.41959 0.23312 0.16044 6.686E-4 -0.59187 0.19141 -0.11012 -0.34942 0.27086 0.34556 0.27451 -0.24028 -0.41786 0.18377 -0.32553 -0.13098 0.18463 -0.15204 -0.1951 -0.43172 -0.29841 -0.56225 -0.38772 0.37185 0.15154 0.050049 0.33257 -0.57848 0.87809 -0.86622 0.30986 -0.33335 0.72653 0.60276 -0.083359 0.5064 0.31746 -0.46697 0.18674 0.43944 0.42488 0.32827 0.096667 -0.20487 -0.52121 -0.14884 0.30946 0.19762 0.076815 -0.43175 0.10051 0.12832 -0.51522
hotel -0.12094 -0.5 0.29498 -0.14701 0.14621 -0.0077124 -0.55224 0.27612 0.3374 0.155 0.23256 -0.26615 -0.26406 -0.11263 0.16831 -0.16791 -0.043197 0.20689 -0.35648 -0.51232 -0.41 -0.057119 0.13625 0.24023 -0.18851 -0.23974 0.24728 -0.0096101 0.22878 0.14358 -0.1438 -2.6425E-4 0.32555 -0.24306 -0.71774 -0.1927 0.12812 0.48859 0.16676 -0.33011 -0.87229 0.24631 0.69893 -0.095728 0.4047 0.051479 0.19077 -0.18419 -0.0036998 -0.038337 0.14276 -0.14408 0.68377 0.0072095 0.22588 0.05569 -0.13924 0.14108 0.11035 -0.36336 0.3824 -0.014818 0.37074 0.34643 0.28828 -0.4716 0.075506 -0.40074 0.2236 -0.33566 0.71821 0.15134 0.19308 0.33215 -0.13532 0.080036 -0.45481 0.55643 0.15359 0.2513 0.3463 0.41205 0.42037 -0.12711 0.028153 -0.13 -0.51962 0.11357 -0.18991 0.51231 -0.86172 -0.12857 0.19852 0.18621 -0.58763 -0.26016 -0.5138 -0.31503 0.76258 -0.29229
term -0.25227 0.46223 -0.14715 -0.16536 0.20256 -0.1793 -0.43689 -0.11013 0.17162 -0.48765 -0.94594 -0.4146 -0.092494 0.40162 0.38342 -0.65729 -0.51137 -0.25163 0.57211 -0.35413 0.45415 0.093739 0.7004 0.0057711 -0.3319 0.070337 0.45419 -0.013075 -0.38775 1.0469 -0.2455 -0.063947 0.55407 -0.089058 -0.45924 -0.042473 0.23042 -0.52153 0.18843 -0.17956 -0.43437 -0.021641 0.1202 0.14008 -0.096524 0.11496 0.11586 0.55292 -0.18633 0.23963 0.10025 -0.42423 -0.24847 0.17836 -0.2731 -0.61638 -0.23031 -0.28765 0.15647 -0.09383 0.35908 -0.16568 -0.34753 0.4747 0.45305 0.036868 -0.11786 0.27118 0.26273 0.43088 -0.38199 0.32217 0.20276 -0.15819 -0.060544 0.22144 -0.27345 0.17764 -0.10314 0.22982 0.26316 0.60151 0.10732 0.49754 0.029298 0.7941 -0.071186 0.075187 -0.20205 0.094489 0.30028 -0.21476 0.12566 -0.076969 -0.059554 -0.020038 -0.17025 -0.11183 0.14692 -0.57571
listing -0.34327 -0.44683 -0.26755 -0.53632 -0.24055 0.034723 -0.22373 0.15061 -0.14917 -0.36131 -0.037358 0.16042 -0.06225 -0.033083 -0.076133 -0.54239 -0.27938 -0.11478 0.79248 -0.29743 0.33851 -0.02022 -0.34063 -0.092091 -0.2799 -0.15437 1.0948 -0.013503 0.084558 0.32906 -0.47964 0.48158 -0.077941 -0.022664 -0.24083 0.038128 0.4547 0.036554 0.5491 -0.042029 -0.39723 -0.045116 0.61473 -0.098241 0.32688 -0.091503 0.13802 0.015639 -0.0068441 0.35422 -0.0049961 -0.12163 0.11795 0.28554 -0.20686 -0.20797 -0.20101 -0.4411 0.023858 0.031165 0.2242 -0.89431 -0.088695 0.68946 0.19598 -0.27521 -0.096451 -0.17174 -0.024225 -0.51483 0.036678 -0.09194 -0.10397 0.13312 0.15894 0.19287 0.036529 -0.080615 -0.097095 0.31405 0.23799 -0.10538 0.23098 0.082002 0.16639 0.16507 0.060648 0.10792 -0.035743 0.25562 -0.44348 -0.20932 0.26684 0.57575 0.40034 -0.68942 0.15819 -0.24655 0.2315 -0.52913
chemistry -0.3806 0.28714 -0.01242 -0.088032 0.55855 -0.37373 0.39755 -0.19389 0.056804 0.16134 -0.70095 0.19152 -0.21897 -0.20059 0.070878 -0.076871 -0.19716 -0.84835 0.052563 -0.44827 -0.3885 -1.1123 -0.36583 0.17105 -0.21964 0.1117 -0.18847 -0.31698 -0.20128 0.3595 -0.35112 0.019462 -0.0088736 0.077616 -0.49999 -0.093202 0.24552 -0.35878 0.075857 -0.38891 -0.227 0.45963 -0.22319 -0.39621 0.33788 -0.052424 0.23996 0.26478 0.050459 0.64413 0.38694 -0.037869 -0.028965 0.20681 0.22499 0.42581 -0.10967 -0.27333 0.48331 0.50557 0.21567 -0.28143 0.22582 0.018921 -0.26353 0.14422 -0.056055 -0.35969 -0.37096 0.067489 0.084032 0.055138 0.17528 -0.082011 -0.39952 0.34485 0.045506 6.5196E-4 -0.012495 -0.36219 0.3525 -0.25661 0.30927 -0.29854 0.022554 0.48458 -0.28819 0.034435 0.70258 0.013689 0.021168 -1.0643 0.043262 0.35829 -0.029496 0.26534 -0.6179 -0.25106 -0.051821 0.25737
seafood -0.11099 -0.37542 -0.29975 -0.0751 0.61944 -0.047861 -0.1352 -0.10117 0.074353 -0.4791 -0.26526 0.45104 0.19992 0.10618 -0.25724 -0.16648 -0.13779 -0.44824 -0.32542 -0.36512 -0.47744 -0.028427 -0.25405 0.060777 0.083723 0.44022 -0.1999 -0.35997 0.066743 0.37172 -0.32272 0.53698 -0.18125 0.84409 0.1146 -0.043179 0.089937 0.16182 -0.19207 -0.50621 -0.67368 0.43994 0.91916 -0.037777 0.14957 0.63064 -0.19884 0.064084 -0.14664 -0.80609 -0.16371 -0.11208 0.26514 -0.56504 -0.25394 0.24674 -0.30604 -0.27442 0.50186 0.38571 0.53861 -0.30243 0.3513 0.052846 0.03317 -0.65149 -0.36795 -0.9838 -0.35605 -0.37872 0.29109 -0.059398 -0.058954 0.052723 -0.21831 0.33174 0.084736 0.1217 0.42691 -0.14789 0.11287 -0.11377 0.49546 0.26956 -0.030696 0.35452 -0.32752 0.44815 0.12812 0.29148 -1.0115 -0.88199 -0.13589 0.21855 0.13892 -0.77368 -0.40761 0.0038229 0.056652 0.073594
CD -0.087288 0.048802 -0.77318 -0.41741 -0.036763 0.72333 -0.26914 0.33382 0.51214 0.17066 -0.17526 0.39855 0.26702 0.15013 0.13061 -0.71927 0.24869 -0.80876 -0.32941 -0.57753 0.341 0.33111 -0.63708 -0.0090271 0.13026 -1.0392 0.51648 0.099078 0.70372 0.41473 0.15138 0.014045 -0.22054 -0.53599 0.049322 -0.44248 0.093958 0.21467 -0.48187 0.27066 0.11169 0.15025 0.4404 -0.17533 0.32615 -0.28623 0.49717 -0.25762 -0.58381 0.50672 0.50135 0.13224 0.27045 0.09232 -0.36926 0.43192 0.19221 -0.49652 -0.012646 0.42613 0.50326 -0.47498 0.079075 0.32366 0.30352 -0.10966 -0.22064 0.10181 0.22532 -0.49259 0.30223 -0.19085 0.30968 0.54038 -0.48542 -0.034197 0.13459 -0.14021 -0.41263 0.55931 0.91848 -0.30465 0.27781 0.26201 0.32965 0.38989 0.11458 0.42844 0.32869 0.27172 0.13756 0.19954 0.19895 -0.011138 -0.031549 0.012096 -0.40191 -0.15282 0.18794 -0.21827
mind 0.16733 -0.14326 -0.10967 -0.15488 -0.0046426 -0.051331 0.1963 0.10624 0.19019 0.014492 -0.3128 0.16646 -0.016126 -0.034057 0.49166 -0.30781 0.30828 -0.543 -0.15392 0.0032408 -0.23903 0.043357 -0.16768 0.14432 0.036254 -0.066257 0.5757 -0.044004 -0.12255 0.1296 0.018983 -0.16592 -0.012182 -0.012342 -0.39164 -0.057968 -0.24267 0.029375 0.17042 -0.31776 -0.3435 -0.0042301 0.72345 -0.015133 0.49352 0.15345 0.0032499 0.49018 -0.036259 0.20939 0.41929 -0.093973 -0.072433 0.65658 -0.12152 0.071918 0.068204 -0.23437 -0.34819 0.41625 0.040001 -0.14602 0.62667 0.31522 0.16405 -0.42505 -0.22209 -0.15476 -0.11937 -0.030713 -0.10025 0.169 0.78288 -0.072394 -0.052581 0.093269 0.12232 0.054389 0.544 0.037286 0.85585 0.054976 0.034937 0.17695 0.29877 0.34962 0.11259 -0.45842 0.50649 -0.086696 -0.0091811 -0.11926 0.32025 -0.11524 0.20991 -0.072202 -0.087802 0.068471 -0.10505 -0.099353
sex -0.75658 -0.14241 0.13738 -0.51784 0.20092 -0.25589 -0.45579 -0.30884 0.27213 0.029128 -0.48608 -0.023378 -0.11927 0.10528 -0.088262 -0.36301 0.56277 -0.47719 -0.61425 -0.079714 -0.28509 0.12759 -0.1427 0.35525 -0.29465 0.20365 0.65672 0.074633 -0.26254 0.24226 0.31401 -0.26547 -0.11129 -0.23031 -0.23605 0.1399 -0.32804 -0.27076 0.29301 0.021366 -0.10905 0.47899 0.12802 -0.48785 -0.093704 0.41928 0.22416 0.55513 -0.35745 0.23042 -0.41187 0.097603 -0.019317 0.089745 -0.16875 0.2141 0.16554 -0.59727 -0.14811 0.37512 0.36774 -0.22128 -0.21846 -0.5624 0.55725 -0.64638 -0.54607 -0.21328 -0.53326 0.20242 0.80541 0.51748 0.56543 -0.026636 -0.34266 0.26543 -0.64118 0.31155 -0.30591 0.3674 0.28406 -0.14276 0.47606 -0.093759 -0.19295 -0.039832 0.74139 -0.15764 0.71389 -0.067017 0.28346 0.089146 0.2168 0.70548 -0.58641 -0.55218 -0.19872 -0.045721 -0.0070969 -0.36811
food -0.39563 0.30477 -0.032422 -0.3517 0.26312 -0.39858 -0.4686 -0.27955 -0.055656 -0.74946 -0.21777 0.43001 0.20846 -0.22364 -0.055772 -0.13692 -0.077109 -0.51406 -0.67726 -0.42056 0.24565 0.036054 -0.049717 0.25412 0.26727 -0.13395 -0.31731 -0.12469 0.011081 0.36327 0.027248 0.18797 -0.15934 0.63215 -0.049187 0.088889 0.25062 0.26204 -0.50525 -0.42681 -0.21707 0.29062 0.59347 0.056972 0.24558 0.37335 0.020249 0.23806 0.052711 -0.3659 0.2791 -0.39864 0.18787 -0.22119 0.12264 0.35232 -0.17183 0.041127 0.78482 0.14099 0.57199 -0.099446 0.26999 -0.48017 0.061962 -0.52425 -0.29999 -1.1566 -0.65703 -0.34282 0.22626 -0.069155 0.32292 0.031196 -0.14961 0.20497 -0.03555 0.31295 0.043093 0.0055369 0.42284 0.085423 0.032486 -0.20532 0.050195 0.52805 -0.62684 0.1176 0.031576 0.34983 -0.37125 -0.57378 -0.0015881 -0.35873 0.074757 -0.22273 -0.026806 -0.31048 0.093596 -0.22424
precedent 0.19345 0.22457 0.15006 -0.36364 -0.077583 0.3972 -0.20355 -0.30658 0.096338 -0.25894 -0.22528 -0.073747 0.30263 0.17885 0.077317 -0.16083 -0.096879 -0.69726 0.13046 0.20349 -0.53293 0.414 -0.38423 -0.053659 0.19205 0.1403 0.57959 -0.48443 -0.33468 -0.02357 0.085122 -0.58956 -0.026793 -0.11259 -0.62207 -0.17963 0.11161 -0.50104 4.0372E-4 -0.45941 -0.051604 -0.28176 -0.063056 -0.047299 0.052108 -0.10314 0.23175 0.96814 -0.19613 0.42047 0.38868 -0.20851 -0.17338 0.16544 0.029238 -0.12775 -0.078222 -0.11424 -0.13902 0.15096 0.70548 0.25217 0.53949 0.33096 0.10817 0.018221 0.055228 -0.30717 -0.50271 -0.45603 -0.15023 0.33319 0.45852 -0.035077 0.092288 0.35018 -0.12556 0.19034 0.23172 0.18406 -0.13601 0.10847 0.3524 -0.042774 0.015265 0.028695 0.13192 0.38127 0.2228 -0.044255 0.41373 -0.21783 0.12991 0.052585 0.31411 -0.5559 0.10485 0.027742 0.30599 -0.097883
series -0.26871 0.11459 -0.17877 0.17726 -0.19633 0.37026 -0.31417 -0.27573 -0.54064 -0.18208 -0.16753 -0.069452 -0.015055 -0.13472 0.12572 -0.37949 -0.21466 -0.64336 -0.33536 0.46509 -0.623 -0.33669 -0.20289 0.34261 -0.16428 -0.11969 0.28485 -0.37923 0.023166 -0.072829 -0.05669 -0.24973 0.12222 -0.76696 -0.25149 -0.50396 -0.1341 0.27487 -0.17564 -0.057338 0.18686 0.53155 0.17131 0.252 -0.22391 -0.31306 0.058648 0.060524 0.18533 -0.019053 0.45463 -0.48194 0.25667 0.23154 -0.25979 0.015152 0.084151 -0.50317 0.32248 -0.011022 0.392 -0.40527 0.38097 0.1419 0.52896 -0.74891 -0.057214 -0.054295 -0.075038 -0.44512 -0.22339 0.31868 0.49383 0.057559 -0.78813 0.31801 -0.28685 -0.10145 -0.53509 -0.037557 -0.07444 0.47908 0.25436 0.22039 -0.1838 -0.067827 0.33928 0.54184 -0.11611 -0.3929 0.054062 0.11979 -0.13174 0.16372 -0.15818 -0.0085405 0.0035576 -0.37603 -0.041671 -0.46894
kilometer -0.1806 -0.1265 -0.16916 0.80644 0.073406 -0.5122 -0.16408 -0.11176 0.18404 0.13736 -0.30309 -0.25939 -0.040388 0.42632 0.024627 0.077614 0.038896 0.13249 -0.35446 -0.61714 0.18823 0.12486 -0.59083 -0.33462 -0.71032 -0.10056 0.65031 -0.25408 -0.30102 0.23424 -0.30305 0.31851 -0.060348 0.27582 -0.98869 -0.73113 0.40569 0.33366 0.86806 0.10184 -0.75575 0.20807 0.44547 -0.25168 0.46022 0.14868 0.28554 0.73207 0.022071 -0.88657 0.065174 -0.020018 0.91465 0.19286 -0.064098 0.67046 0.017902 0.055047 0.91746 -0.23485 0.60006 0.49494 0.5547 -0.68616 0.54148 -0.28267 -0.48116 0.96915 0.48317 0.10253 -0.23679 0.15977 -0.67406 -0.74425 -0.36598 0.42228 0.65751 -0.053431 0.52421 0.0050926 0.6171 0.62224 0.58996 -0.46707 -0.089378 -0.57733 0.30337 1.4992 1.0031 0.277 0.15219 -0.30177 0.16793 -0.78776 -0.36547 -0.020325 -0.4911 -0.35024 0.46301 -0.12027
grocery -0.095988 0.073191 -0.040878 -0.45785 0.32266 -0.011494 -0.23308 -0.5032 -0.080385 -0.6718 -0.19689 0.39511 -0.46033 0.10167 -0.027704 -0.55687 -0.15704 0.062016 -0.56223 -0.67444 0.13123 0.028478 -0.12284 0.20558 -0.14328 -0.29217 -0.15334 0.25251 0.26542 0.26079 -0.24926 0.20918 0.15726 0.34018 0.21464 -0.20432 0.2226 0.086984 -0.22265 -0.48169 -0.61728 0.85669 0.7137 -0.50327 0.16214 0.32549 -0.013594 -0.085631 -0.051672 -0.66551 -0.12712 0.38288 0.29626 -0.31969 -0.25727 0.61318 -0.38521 -0.17673 0.46045 0.059722 0.4677 -0.55157 0.099606 -0.066706 0.14648 -0.60998 -0.2514 -0.58733 -0.37768 -0.50787 0.69337 -0.093117 0.89465 0.14813 -0.21091 0.18187 0.11236 0.55753 -0.057499 0.41283 0.41926 0.21415 0.5269 0.19466 0.29741 0.091693 -1.0388 -0.0076975 0.029696 0.50738 -0.41875 -0.15538 0.15 -0.48225 0.19568 -0.12105 -0.29522 0.098065 0.32419 -0.072228
wizard -0.27964 0.49291 -0.22742 0.19687 0.17613 0.44188 0.23868 0.01199 -0.31477 -0.14808 0.42843 0.077899 0.2482 0.38176 0.19928 -0.61592 -0.013074 -0.17921 -0.030848 0.49619 -0.34561 -0.49036 -0.16888 -0.20678 0.11915 -0.41659 0.78557 0.3331 0.14035 0.92522 0.31811 -0.29376 0.050153 -0.342 -0.29996 -0.21241 -0.3568 0.039841 -0.14238 -0.055565 -0.40826 0.74612 0.34774 -0.47941 0.21374 0.22421 0.1466 0.22178 -0.15986 0.48218 0.27649 0.051851 -0.11171 0.28162 0.27376 0.27701 0.48897 0.036148 0.2624 0.24071 0.16322 -0.39069 0.31789 0.16318 0.27846 0.10576 -0.38318 -0.58298 -0.12191 -0.14597 -0.095407 0.013161 0.25167 0.044762 -0.72692 0.35074 -0.18081 0.23448 -0.12877 -0.13809 0.32828 -0.21749 -0.18158 0.5238 -0.35386 0.25939 0.50582 -0.024058 0.53756 -0.13213 -0.26892 -0.64445 -0.10694 0.21613 -0.21669 0.19612 -0.74867 0.23531 0.039161 0.040987
information -0.25257 0.14928 4.2617E-4 -0.077155 -0.57311 0.52449 0.23533 0.45957 0.16286 -0.039281 -0.062878 0.5514 -0.4091 0.013664 -0.088888 -0.69318 -0.13166 -0.426 0.26649 0.044522 0.64916 0.1773 0.16854 0.35214 0.1532 -0.32871 0.14971 0.44008 -0.31835 -0.5132 -0.46269 0.16944 -0.53711 0.65929 -0.7833 -0.25056 0.16415 0.22598 0.40936 0.031956 -0.39272 0.33111 0.64056 0.15351 0.31123 -0.20672 0.061138 0.40869 0.044991 0.13703 0.075202 0.061979 0.28323 0.42119 -0.095568 -0.075742 -0.40426 -0.58922 -0.18859 -0.19071 0.47879 -0.15043 0.30137 -0.0065217 0.17465 -0.1295 -0.40794 -0.26666 -0.58949 -0.12263 0.11148 0.31186 0.24679 0.14578 -0.25363 0.046537 -0.26357 0.50124 0.48952 0.29662 0.17565 -0.081595 0.77334 -0.11279 -0.13933 -0.12694 -0.11637 -0.062564 0.66048 0.22135 0.035445 -0.78198 0.072438 0.24662 0.48441 -0.051458 0.41413 -0.29658 -0.17751 -0.45519
Israel 0.34934 0.52549 -0.29226 -0.62859 -0.059679 -0.16705 -0.83491 -0.33783 0.93873 0.20176 -0.57958 0.19703 0.061505 -0.30271 0.51875 -0.75468 0.37637 -0.18778 -0.18756 -0.90939 -0.42321 -0.080406 -0.3983 0.37361 -0.088947 -0.061381 0.54213 -0.20002 -0.095974 -0.23881 0.28835 -0.069567 -0.40871 0.23188 -0.61954 -0.88487 -0.40231 0.22036 -0.2447 0.28967 0.37385 -0.19419 0.25923 0.40594 0.68153 0.5372 0.12872 0.43483 -0.25245 0.28284 -0.4506 0.029699 -0.27007 -0.036277 0.40394 -0.73521 0.093947 0.14743 -0.31337 0.16553 0.29333 -0.48543 -0.16647 -0.51115 0.079639 -0.55263 0.045402 0.34596 -0.19826 -0.89781 -0.25205 0.68023 0.79024 -0.029464 0.12252 -0.1724 -0.093261 0.12987 0.34666 0.18153 -0.060496 -0.17759 0.33859 -0.13057 -0.031802 0.18619 0.072973 0.47583 -0.17939 -0.91846 -0.16703 -0.30877 0.79138 0.11423 0.13916 0.15052 -0.23403 -0.79593 0.1805 -0.28237
brandy 0.094291 -0.084712 0.32389 -0.28388 0.42862 -0.15608 -0.19643 -0.083929 0.13343 -0.2312 -0.14749 0.47705 -0.087426 0.29305 -0.039767 -0.55116 0.14594 -0.41344 -0.37696 -0.2751 -0.0048519 -0.062881 -0.46263 0.045692 -0.0029525 -0.3843 0.11789 0.093382 0.072184 0.63517 0.11368 -0.23543 -0.1762 -0.036589 0.39144 -0.17958 0.060042 -0.012618 0.042836 -0.18079 -0.6387 0.395 0.337 0.0119 -0.11608 0.37005 -0.076693 0.19024 0.16162 -0.54709 0.13226 0.12615 0.57706 0.057594 0.011958 -0.15439 0.24909 -0.38275 0.0052472 0.52562 0.60601 0.11842 0.036294 0.34904 -0.10219 -0.50879 -0.19333 -0.22309 -0.28737 -0.25798 0.27894 0.089176 0.31817 0.16297 -0.072166 0.28328 0.23595 -0.088601 0.15457 0.012426 0.35186 0.020057 0.27712 0.63502 0.44104 0.070428 -0.32911 -0.35443 0.31707 0.28683 -0.15434 -0.73474 0.11594 0.12619 -0.021412 -0.22039 -0.30076 0.06316 0.32389 0.060412
interview -0.40977 0.29918 0.50713 -0.085097 -0.18639 0.25058 0.29009 0.4827 0.12229 0.035731 -0.11314 -0.051128 -0.0021508 0.35391 0.58388 -0.037511 -0.28537 -0.2547 0.25355 -0.17325 0.11642 -0.23 -0.46033 -0.34768 -0.16122 -0.37928 0.58169 -0.11911 -0.070429 -0.15116 -0.11905 0.086315 -0.039696 -0.49694 -0.88271 -0.25988 -0.42749 0.55855 0.15348 -0.48754 -0.10579 0.60561 0.17842 -0.19697 -0.42036 0.039539 0.45012 0.26931 0.55234 0.066388 0.47188 -0.54798 0.21286 0.2349 -0.11876 -0.31349 -0.057447 -0.21461 -0.26643 0.15273 0.59827 -0.63047 0.30753 -0.10295 0.58032 -0.19137 -0.26022 0.62733 -0.1393 -0.085841 0.34161 0.16659 0.44864 0.20712 0.23888 -0.26381 0.15311 0.15991 0.2415 0.12259 -0.31554 -0.24729 0.13431 -0.18203 0.15323 0.52902 -0.38588 -0.043407 0.52526 -0.34144 0.15731 -0.019798 0.26247 0.13908 -0.33601 -0.60119 -0.008682 -0.060751 0.76386 -0.48651
prominence -0.51811 -0.31132 0.34316 0.046655 -0.031133 0.32161 -0.24531 -0.27804 0.01542 -0.16359 -0.27244 0.39745 0.066799 -0.133 0.22395 -0.088374 -0.13425 -0.18507 0.15821 -0.40109 -0.15322 -0.15309 -0.53848 0.18485 -0.2708 -0.27366 0.49757 0.52465 0.22118 0.078287 -0.17629 -0.062643 0.10247 -0.17225 -0.33376 -0.024912 -0.42476 -0.32201 0.30793 -0.36633 -0.36314 0.16303 0.04335 -0.34685 -0.14925 -0.24333 0.1936 0.094817 -0.3888 0.27043 0.47741 -0.17809 -0.30803 0.21244 0.19241 -0.076896 -0.22166 -0.31379 0.24827 0.1131 0.47147 -0.15416 0.091256 -0.27948 0.27855 -0.12386 -0.19706 -0.16951 -0.21193 -0.24864 0.1637 0.34489 0.29607 -0.2747 -0.21548 -0.041461 0.36382 0.5309 -0.070201 -0.30945 0.21383 0.076282 -0.076061 0.50782 0.0049059 0.16485 -0.15804 0.24061 -0.27541 -0.34541 0.26226 -0.438 -0.037275 0.44819 0.10296 0.12851 0.29806 0.12759 -0.18844 -0.23802
bed 0.061967 -0.058001 0.62422 0.14141 0.0052318 -0.3992 -0.22214 0.051968 0.36628 0.50464 0.18507 0.13586 0.17952 -0.34816 -0.16778 -0.35681 0.30096 -0.14165 -0.71342 -0.27503 0.072163 0.039597 -0.1055 -0.06331 0.43926 -0.057816 0.28123 0.47376 0.078274 0.79772 -0.22967 0.32875 0.42316 0.13291 -0.71207 -0.012174 0.41406 0.37836 -0.31385 -0.12214 0.16916 0.16693 0.58998 -0.30297 -0.045156 -0.0051395 0.39697 0.28211 0.51741 0.087292 0.0065306 0.081998 0.37706 0.29748 -0.2655 0.26442 -0.1385 -0.078963 0.092807 0.4505 0.15052 -0.19569 0.36904 0.003826 0.44973 -0.62414 0.031281 -0.40617 -0.029175 -0.050407 0.30398 0.2326 0.4704 0.29464 -0.14356 0.0082945 -0.046744 0.70124 -0.032861 0.081748 0.67235 0.055017 0.59391 0.055139 -0.076546 0.38526 -0.22739 -0.26912 -0.047505 -0.28876 -0.21024 0.23498 0.38254 -0.25427 -0.66224 -0.3236 -0.5975 0.20881 0.54082 -0.089701
furnace 0.092625 -0.34644 0.018314 -0.021975 -0.050891 -0.38293 -0.49525 -0.1485 0.030846 0.42028 -0.030085 0.30287 0.37492 -0.27183 -0.28096 -0.75822 0.10124 -0.41721 -0.53101 -0.60051 -0.016055 -0.45348 0.19239 0.23366 0.20377 -0.23476 0.37197 0.19509 0.056346 0.0050838 -0.062916 0.29189 -0.33546 0.13068 -0.11574 0.28073 0.71022 0.095033 -0.14377 0.092937 0.30409 -0.30763 0.24724 -0.12058 0.48606 -0.18308 -0.11952 0.29139 -0.0028157 -0.3705 0.23688 -0.37844 0.20554 -0.0094172 -0.26062 -0.13068 0.26054 0.01643 0.21479 0.32686 0.60506 -0.070689 0.65678 0.053939 -0.3956 -1.1046 -0.71018 -0.33603 0.012749 -0.51656 0.19267 0.13795 0.16719 0.14767 -0.39868 0.36391 0.2112 0.26692 -0.10236 -0.18341 0.27048 0.30302 0.19072 -0.013177 -0.13176 0.026997 -0.28989 0.51304 0.11884 0.40142 0.014407 -0.45051 0.2958 -0.70893 0.087276 -0.095355 -0.4245 0.1765 0.53005 0.1905
evidence -0.096036 0.050768 0.15466 0.31527 -0.43665 -0.074537 0.22627 -0.31767 0.43772 -0.095063 0.080334 0.041715 0.080216 0.19962 0.37129 0.023805 -0.71343 -0.55401 0.032784 -0.25684 -0.10766 -0.15573 -0.11344 -0.070056 0.41409 -0.25945 0.6031 0.13404 -0.56722 -0.2891 -0.22028 -0.37082 -0.28457 -0.03477 -0.47696 -0.25904 0.097587 -0.60764 -0.24373 -0.58214 -0.064825 -0.18966 0.20104 0.25804 0.167 0.016623 -0.053344 0.45609 0.076555 0.46884 0.28811 -0.064122 -0.014012 0.50471 -0.069234 0.054339 -0.4648 -0.1069 0.6083 0.068932 0.334 0.12124 0.31154 -0.33867 -0.04275 -0.64154 -0.068703 -0.60328 -0.5922 0.1928 0.42307 0.30114 0.74001 0.08427 0.0048517 0.081305 -0.3275 0.61782 0.41247 0.27869 -0.090249 -0.13015 0.54099 -0.39863 -0.26502 0.39488 0.39604 0.064341 0.70235 -0.031053 -0.21456 -0.55659 -0.16697 0.23396 0.40589 -0.11153 -0.22233 -0.10194 0.10686 -0.43389
sprint -0.13627 -0.37902 -0.14001 0.26913 -0.12567 -1.2692 0.05203 -0.97674 -0.17443 -0.48207 -0.73571 -0.37382 -9.7509E-4 0.42958 0.47558 -0.4436 0.30325 -0.41433 0.20898 -0.073583 0.080681 -0.43522 -0.7552 -0.072543 -0.36916 -0.33294 0.54894 -0.25524 -0.26786 0.83012 -0.63923 0.35526 -0.061502 -0.80828 -0.33698 -0.076821 -0.32579 -0.23468 0.01259 -0.32436 -0.83926 0.096822 -0.038013 -0.011039 0.09549 -0.0037828 0.41375 0.28216 0.081464 0.35662 0.39559 -0.32026 0.47487 -0.32402 0.10704 0.17297 0.009476 -0.43469 0.19954 -0.27545 0.24137 0.13233 0.41309 0.40642 0.15214 -0.26209 -0.13205 0.16701 -0.06026 0.06535 0.1436 -0.14487 0.39789 0.11535 -0.30135 -0.28759 0.51866 0.2407 0.031789 -0.25171 -0.091645 -0.11493 0.044662 0.11494 0.0059924 -0.046722 0.32049 0.45255 0.52202 0.26188 -0.21078 -0.44471 0.095542 -0.19714 -0.062323 -0.4619 -0.0047195 0.033833 -0.054927 0.26357
emergency -0.51499 0.18947 0.2081 0.14757 -0.1495 0.082261 -0.49128 0.17696 0.094245 -0.32314 -0.19647 -0.15506 0.12599 -0.35174 -0.29559 0.050782 0.44906 0.0358 -0.68743 -0.13419 0.15102 -0.11273 0.011075 0.06143 0.23827 0.13929 0.095973 0.091674 0.21303 0.043065 -0.018096 -0.11217 0.14197 0.080236 -1.2481 -0.18598 0.74098 0.52272 -0.12693 -0.083205 0.2321 -0.13381 1.0343 0.44577 0.11287 -0.097091 0.45431 0.72951 0.20815 0.17118 -0.27853 -0.86182 -0.1402 -0.13457 -0.1772 -0.50129 0.02045 -0.17657 0.31624 -0.29313 0.74946 0.12317 9.9551E-5 0.14168 0.0081597 0.30892 -0.077557 -0.1977 -0.50938 -0.55852 -0.28628 -0.3511 0.0019235 -0.20839 0.58681 0.25289 0.064266 0.99571 -0.037726 0.65661 0.20309 0.14423 0.04588 -0.1004 -0.18471 0.18665 -0.46545 0.021458 0.075045 0.082674 -0.0091796 -0.10643 0.043345 -0.025931 0.28281 0.1084 -0.31004 -0.69911 0.39968 -0.18527
Jackson -0.22862 -0.19441 0.15334 0.0057707 -0.33414 -0.093988 -0.26193 -0.098004 0.2271 -0.063029 -0.03025 -0.042106 -0.29896 0.53048 -0.14549 -0.12185 0.52675 -0.14053 -0.27112 -0.29738 -0.20272 0.038505 -0.84655 -0.4119 0.34651 -0.66835 0.5486 -0.087483 0.62183 -0.03028 0.52923 -0.019933 0.1229 -0.38954 -0.63059 0.30313 0.10289 0.043161 -0.16494 -0.16149 0.025458 0.47346 -0.016877 0.3562 0.41724 0.060551 0.47081 -0.010053 0.12451 0.90183 0.69277 -0.28872 -0.48694 0.11988 0.20549 0.52701 0.20744 -1.0647 0.39751 -0.032018 0.19072 -0.24106 -0.3825 -0.20452 0.77958 0.21496 0.26761 -0.0058974 -0.24452 -0.62082 0.050323 0.24142 0.32691 -0.32798 -0.29397 0.012964 -0.17488 0.2518 0.23225 -0.016292 -0.22534 -0.33095 -0.070635 -0.10921 0.26801 -0.060933 -0.093887 -0.26823 -0.28991 -0.20041 -0.53067 -0.61214 0.50187 -0.0885 0.32598 0.13484 -0.81437 0.0072486 0.43434 -0.51363
institution -0.72013 -0.19399 0.095168 -0.42443 0.1226 0.32089 0.16253 -0.1487 0.16467 -0.15628 -0.56532 -0.2869 0.11228 0.22112 -0.11887 -0.35319 0.17113 -0.30642 0.065069 -0.22917 -0.2518 0.56614 -0.0925 -0.30185 -0.089002 -0.1105 0.48878 0.17474 -0.41419 0.5267 0.42038 -0.12999 0.33301 0.12514 -0.64392 -0.21311 0.089428 -0.23175 0.23558 -0.25859 0.31392 0.55065 0.43142 -0.47641 0.06191 -0.34463 -0.075392 0.056366 -0.54819 0.16021 0.0073537 -0.094625 -0.098223 0.48754 -0.04593 0.12553 0.14356 0.17941 -0.31789 1.5104E-4 0.60305 0.060913 0.22587 -0.020636 -0.0040174 0.24371 0.0082547 -0.37989 -0.33111 -0.33909 -0.17131 0.080998 -0.17745 0.12441 0.26555 0.71371 -0.26271 0.4958 0.041677 0.18556 -0.16569 0.20622 0.28154 -0.066922 -0.075011 0.20939 -0.23028 -0.073872 0.20754 -0.0218 0.11085 -0.63999 0.28605 0.038083 0.025027 0.049676 0.077574 -0.43891 0.20148 0.29809
bird 0.13592 -0.14149 0.10314 0.052361 -0.20207 -0.29193 -0.22006 -0.018188 0.38239 -0.12758 -0.35025 0.77778 0.19041 0.24833 -0.29336 -0.16676 -0.28158 -0.52054 -0.039493 -0.031884 -0.92841 -0.086245 -0.30545 -0.11797 -0.13255 0.42066 0.14106 0.19977 -0.061446 0.61394 -0.35247 0.35423 -0.24226 0.21866 -0.13559 0.55725 0.12752 0.25824 -0.57905 1.4225E-4 -0.32371 0.54766 0.96119 0.054338 0.38469 0.1722 -0.15332 0.53241 -0.17369 -0.2007 -0.52949 -0.52104 0.042888 0.38335 -0.49673 -0.22573 -0.31282 -0.22465 0.28187 0.7162 0.13143 -0.052215 0.337 0.15796 0.4563 -0.84795 -0.59926 0.13593 0.34318 0.14919 0.30224 0.24722 0.36618 -0.55888 -0.61125 -0.14163 0.41769 0.48891 0.50227 0.032833 0.18202 -0.61977 0.076343 -0.22069 -0.15968 -0.0075147 0.20045 0.24543 0.206 0.59456 -0.2955 -0.4425 0.074076 0.65322 -0.069383 -0.39115 -0.50562 -0.52924 -0.0544 0.40681
Brazil -0.35964 -0.21067 -0.1456 -0.035337 0.28202 -0.1896 -0.55049 0.036345 -0.37531 -0.51523 -0.23308 0.19578 0.28344 0.21783 0.25907 0.2626 0.22841 -0.41682 -0.22446 -0.15746 -0.061964 0.62952 -0.59256 0.018138 -0.072 -0.028161 -0.051972 -0.10314 -0.18071 -0.043255 -0.35605 0.95269 0.15658 -0.3215 -0.50924 -0.34981 -0.17527 0.52924 0.30941 0.0029106 -0.61616 -0.28123 0.23124 0.28299 0.18911 0.32688 0.33854 0.23269 -0.28579 0.28127 0.016746 -0.035499 -0.25688 -0.016803 0.0045225 -0.43939 0.030372 0.16652 -0.28557 -0.37876 0.60197 0.055796 -0.10907 -0.20546 -0.058868 -0.31145 -0.32761 0.091479 -0.12825 0.13095 0.027231 0.10545 0.35512 0.16436 -0.53019 -0.23692 0.72041 0.63302 0.33275 0.38237 -0.33987 0.087443 -0.2287 0.108 -0.18769 0.66238 0.15486 0.85168 -0.13117 -0.2023 0.30652 -1.1664 0.30133 0.40741 0.067711 -0.14101 -0.38221 0.49529 0.37426 0.040647
warning -0.42605 0.36068 0.11362 0.093403 -0.29629 0.34038 -0.012659 -0.25127 0.25612 0.27956 -0.13997 0.42897 0.39609 0.13527 0.36945 -0.23861 -0.19479 -0.16945 -0.041466 0.22577 0.18608 0.051054 0.10713 -0.20048 0.1894 0.043579 0.36084 0.030137 -0.13943 0.14293 0.12387 0.24308 -0.35241 -0.24872 -0.060247 -0.083444 0.28723 -0.028586 -0.58368 -0.48953 -0.44032 0.23181 0.65572 0.28866 -0.25576 0.069894 0.30242 0.25839 0.21617 -0.15062 0.20852 0.026294 -0.32656 0.19066 -0.25854 -1.0886 -0.25181 -0.056622 0.65271 0.034085 0.39178 -0.063628 0.39977 0.49566 0.11624 -0.14595 0.040324 -0.068492 -0.39413 -0.54822 -0.33055 0.14553 -0.13212 -0.42577 0.16079 0.62365 0.26173 0.34744 0.41368 0.30608 0.38143 0.036292 0.043941 -0.067314 0.067335 0.12178 -0.42261 0.31173 0.35197 0.15675 0.12351 0.25461 0.62827 0.53981 0.60869 -0.58319 -0.051513 -0.3052 0.46581 -0.31695
implement -0.1589 0.30036 0.15943 -0.13963 0.26871 0.21819 -0.31287 -0.35919 0.11441 0.11961 -0.38623 0.02766 -0.25174 0.0061941 0.89174 -0.22261 -0.061525 -0.30068 -0.023862 0.12807 0.28573 -0.16447 0.34654 0.13269 0.23781 0.12718 0.54699 -0.67817 -0.11853 0.23531 -0.056844 0.14041 0.074022 0.3287 -0.49168 -0.44691 0.22834 -0.15774 0.033884 -0.25084 0.25396 -0.22223 0.34484 0.042189 0.34054 0.24101 0.13285 0.67794 -0.16145 0.046833 0.093779 -0.6413 0.19331 0.60266 -0.47522 0.26094 0.31769 -0.087943 -0.040628 0.018845 0.48048 -0.34582 -0.22877 0.64093 -0.19139 0.43776 -0.12513 0.045453 -0.23119 -0.33095 -0.45505 -0.27406 -0.08527 0.16215 -0.10251 0.52877 0.35153 0.37454 -0.16039 0.59254 -0.039173 0.3993 0.38119 0.35755 0.065844 0.0082986 -0.1208 0.19855 0.27504 -0.17253 -0.18475 -0.32898 -0.24393 0.0039161 -0.0075738 -0.506 0.46614 -0.62026 0.42479 -0.26961
train -0.3583 -0.5746 0.90631 -0.033476 -0.072031 -0.29376 -0.1196 -0.37067 0.10954 0.11003 -0.78401 -0.18583 -0.39973 0.081769 0.7208 0.27775 0.20456 -0.40066 -0.40743 0.057054 -0.056523 -0.40251 -0.099475 0.443 0.19857 -0.13266 0.20118 0.20019 0.22196 0.36398 -0.018 0.42106 -0.16128 -0.28867 -0.36249 -0.095158 0.34746 0.40229 -0.32641 0.21773 -0.56917 0.43222 0.74514 -0.071669 0.31738 0.24021 0.54393 -0.011384 -0.68346 0.01475 0.13322 0.29061 0.17693 -0.29724 -0.35122 -0.16159 -0.098055 0.21499 0.071379 0.077835 0.74163 -0.21091 0.55706 0.39953 0.27868 -0.21201 -0.096029 0.025843 0.27271 0.04598 -0.41162 0.068997 -0.1194 0.15707 0.14167 0.060623 -0.078604 0.16224 0.14353 -0.16157 0.13398 0.24582 0.45907 -0.06122 -0.36506 -0.45374 -0.52339 0.19605 0.57389 -0.029028 -0.012423 -0.12469 -0.0031496 -0.08368 0.08462 0.28262 0.0036748 -0.45235 0.39187 -0.25283
area -0.0042956 -0.2313 0.38907 -0.050731 -0.31124 0.099224 -0.049587 -0.47073 -0.016654 0.16531 0.059905 0.15015 -0.063646 0.19751 -0.037877 -0.32027 -0.41798 -0.27661 -0.38966 -0.29112 -0.34263 -0.1482 0.16114 -0.05521 -0.36617 -0.30155 0.044392 6.5029E-5 0.22712 0.22551 -0.28857 0.23679 0.11878 0.001445 -0.59966 0.063461 0.30444 0.14588 0.11756 -0.12063 -0.25127 0.27622 0.22413 0.17227 0.13308 0.11544 0.11574 0.0027396 -0.31371 -0.067438 -0.16983 0.15612 0.2597 0.49551 -0.68101 0.13578 -0.25287 0.064106 0.032457 -0.44724 0.51019 0.35144 0.19415 -0.27521 0.4873 0.014414 -0.13649 0.1359 0.0099192 -0.01188 -0.24276 0.16452 0.13381 -0.31098 0.06962 0.35526 -0.14191 0.74789 0.19731 0.31762 0.31648 0.31244 0.41788 -0.25202 0.51759 -0.29472 -0.24036 0.20357 0.16126 0.041414 -0.66801 -0.40647 0.38162 0.047773 0.087722 -0.25119 -0.24488 0.033999 0.42693 0.051167
image 0.22731 0.17561 0.45013 -0.20696 0.027226 0.090355 -0.056478 0.39393 0.0058328 0.19077 -0.36122 -0.095182 0.50404 0.47577 0.23884 0.08744 0.090768 -0.37295 -0.29537 -0.049514 0.059417 -0.10665 -0.19671 0.49932 -0.44358 -0.17923 0.6145 0.55842 -0.023824 0.21393 0.0034281 -0.19982 0.0027546 0.1101 0.039882 -0.33892 -0.44003 -0.032913 -0.2059 -0.41609 -0.21886 0.1155 0.46257 -0.2399 -0.095223 -0.11641 -0.10033 0.32564 -0.35344 -0.12246 0.51266 -0.041379 0.3962 0.88887 0.1604 -0.44136 0.36573 -0.17741 0.053026 0.44763 0.42193 -0.23732 0.62973 -0.037735 0.13535 -0.35357 -0.33938 -0.15538 -0.11051 0.11352 0.408 0.32237 0.0038365 -0.12361 -0.16299 0.62636 0.64646 0.2302 -0.16261 0.25257 0.045324 0.053869 0.6342 0.40354 -0.1518 -0.089361 0.024408 -0.0046731 0.19983 0.13716 -0.10562 -0.4735 0.37601 0.48548 0.48539 -0.0074776 -0.26118 0.07582 -0.13601 -0.17805
murder -0.69409 -0.15041 0.27563 -0.53407 -0.17284 -0.062634 9.9746E-4 -0.11476 0.42823 0.15472 -1.0136 0.09029 0.27859 0.28983 0.61651 -0.48938 0.068732 0.24893 -0.31837 -0.27839 -0.31047 -0.56436 -0.25092 0.56897 -0.034461 -0.05329 1.0398 0.044844 -0.037734 0.31832 0.14149 -0.27786 -0.074441 0.167 -0.75966 -0.20989 0.49336 -0.20303 -0.20723 -0.51613 -0.19334 0.60462 -0.19147 0.075358 -0.38197 -0.23391 -0.036834 0.069983 0.031597 0.39609 -0.21967 -0.13254 0.53934 -0.13612 -0.35653 0.51273 -0.61859 0.4749 -0.21493 -0.14648 0.71113 0.13046 -0.074441 -0.11768 0.092736 -0.33312 0.092286 0.37892 -0.11678 0.18151 0.83433 0.16015 0.96924 0.033866 -0.34017 0.52749 -0.69166 0.60506 -0.024946 0.15938 0.17858 0.057678 0.32423 0.14462 -0.67037 0.13826 0.81147 -0.14008 0.43372 -0.17878 -0.33468 -0.21947 -0.31633 0.075766 0.37638 0.32763 -0.6319 0.41792 0.73379 -0.42147
journey 0.23962 -0.35696 -0.0099995 0.076926 0.058592 -0.44235 -0.44791 0.069673 -0.20841 -0.19377 -0.7175 -0.18083 -0.25808 0.20649 0.47762 -0.083351 0.27162 -0.41601 -0.078884 0.3073 -0.15285 -0.2919 -0.41555 0.43511 -0.28867 0.42698 0.4994 0.2994 0.19628 0.51765 -0.24466 -0.035209 -0.020143 -0.18713 -0.63566 -0.32937 0.28361 0.33567 -0.42917 -0.098592 -0.37371 0.8022 0.2102 0.01609 0.40634 0.33318 0.36768 0.73572 0.059535 -0.3127 0.41842 -0.071531 0.57513 0.29387 -0.30152 0.2318 -0.297 -0.0062041 -0.096439 -0.24575 0.79282 -0.030998 0.15149 0.048544 0.75559 -0.31022 -0.30708 0.27014 -0.057001 0.3391 -0.45291 0.51302 -0.41569 0.41235 -0.31584 0.38152 0.27518 -0.1547 0.2269 -0.44393 0.51694 0.4067 0.18768 -0.25137 -0.062397 0.17581 -0.26553 0.054574 0.39298 -0.075475 -0.24963 0.20795 -0.11455 -0.47126 0.3662 0.19393 -0.041482 0.076726 0.069531 -0.28795
minister -0.19053 -0.077964 0.067651 -0.031911 0.44361 -0.16401 0.17421 0.087456 0.72735 0.28584 -0.80232 0.3121 -0.43183 0.28092 0.33899 0.042318 -0.08848 0.67362 0.36273 -0.16181 -0.68988 -0.36231 0.0080418 -0.15948 -0.02841 -0.13728 0.22636 -0.17362 0.16887 0.13614 -0.16844 0.21857 0.19605 -0.07628 -1.1713 -0.22106 -0.13428 0.26311 0.065348 -0.3918 0.15765 -0.5639 0.31027 -1.4161E-4 -0.6737 -0.15336 0.43093 0.42056 -0.14206 0.19118 -0.39042 -0.61386 0.13578 0.15719 -0.037691 -0.70871 0.091296 0.27967 0.095726 0.058871 0.4701 -0.30736 -0.04382 -0.56974 -0.32603 0.0099605 -0.56578 -0.62401 -0.23081 -0.78248 0.12819 0.89149 0.39671 0.21304 -0.62291 -0.11182 -0.4044 0.68906 -0.013643 0.11748 0.3465 0.45299 -0.041689 0.48832 -0.12369 0.2209 -0.062151 0.11821 -0.2205 -0.23249 0.39796 -0.51864 0.36672 -0.30088 -0.20865 -0.49477 0.13374 -0.22325 -0.01032 -0.86157
planet 0.69009 -0.21355 0.24182 -0.41117 0.1462 -0.31108 -0.28277 0.20521 -0.27682 0.30427 -0.40769 0.27233 0.34721 0.047441 0.073226 -0.13712 -0.31409 -0.662 -0.15437 0.11882 -0.42361 -0.20033 -0.025973 0.030214 -0.49492 0.030995 0.26954 0.20082 -0.28856 0.66911 0.25157 0.75463 0.13335 0.18085 -0.0030314 -0.22625 0.31416 -0.34978 -0.39514 -0.45541 0.084443 -0.13301 0.31913 0.40742 0.46766 -2.0104E-4 0.61517 0.85173 -0.34913 0.18669 -0.33899 -0.093939 -0.072142 0.89513 0.1217 0.69546 0.089349 -0.12745 0.21734 0.013569 0.23121 0.032507 0.46765 0.098793 0.40488 -0.17101 -0.55023 -0.22738 0.17113 0.36686 -0.1576 0.44716 0.4935 0.24446 -0.51531 0.57869 -0.0043862 4.0201E-4 0.30879 -0.49711 0.55275 -0.048372 0.023251 -0.1249 -0.40326 0.50017 0.22737 0.48064 0.23137 0.20868 -0.08501 -0.68831 0.72402 0.08623 -0.092531 -0.017572 -0.66969 0.090746 -0.0071443 0.021134
article -0.24469 0.022077 0.46387 -0.39948 -0.2808 0.49881 0.24645 0.0053214 -0.14444 0.011089 -0.45843 0.29898 0.12839 0.85944 0.45834 -0.67685 -0.12808 -0.58529 0.70615 -0.54017 -0.27647 -0.48559 0.11536 -0.44506 -0.40842 0.43771 0.79299 0.42119 0.20404 0.63521 0.81348 0.39175 -0.39511 0.17925 -0.32713 -0.45859 -0.076381 0.17538 -0.34765 -1.1381 0.17945 0.073484 0.035879 -0.79313 0.2609 -0.51092 -0.3059 0.041847 0.74093 0.80788 0.099494 -0.38603 0.57074 -0.13251 -0.011152 -0.35378 -0.83453 -0.49968 0.15781 0.14872 0.66393 -0.84045 0.81125 0.14259 0.60842 -0.016055 -0.66026 0.70583 0.29801 0.47882 -0.44263 0.012263 -0.021028 -0.0086368 -0.54686 -0.49429 -0.42363 0.40672 0.17686 0.18486 0.2265 0.58787 0.64773 0.10648 0.49991 0.012454 0.34487 0.12658 0.068077 -0.018894 0.30114 -0.28419 -0.39878 0.19851 0.031713 -0.38072 -0.13747 -0.37851 0.80968 0.074921
anxiety -0.44398 -0.11178 -0.02976 -0.0063277 0.08496 -0.23121 -0.14774 -0.16306 0.34124 -0.30797 -0.48739 0.20382 0.09021 -0.22221 -0.072968 -0.25783 0.41351 -0.72412 -0.78386 -0.68455 -0.19336 0.14658 0.3016 0.27358 -0.36619 0.58069 0.30378 0.66241 -0.5896 -0.31144 -0.28971 0.047043 -0.02937 0.395 -0.33772 -0.16866 -0.22791 0.16277 -0.16833 -0.24017 0.20671 0.28581 0.047736 -0.44547 -0.068224 0.25815 -0.06925 -0.027759 0.31253 0.39062 0.70513 0.081639 -0.46192 0.79266 -0.31602 -0.34181 -0.13681 -0.37059 0.66653 -0.1042 0.38486 0.46237 0.082999 0.13468 0.52447 -0.30856 -0.022183 -0.60142 0.15958 -0.54665 -0.04766 0.62452 0.41497 -0.17034 -0.012877 -0.26718 0.089093 0.017806 0.35225 0.21038 0.48514 0.10203 0.4202 0.011564 -0.037614 0.39714 -0.0073416 -0.53901 0.4999 -0.13941 0.15011 -0.33391 0.36486 0.51713 0.021294 0.17577 0.003215 -0.30762 0.31017 -0.20728
month -0.27721 0.17323 -0.0504 -0.16488 -0.1484 0.17808 -0.20023 0.22209 -0.1596 -0.08141 -0.43121 -0.079988 -0.3374 0.24171 0.20533 -0.60606 -0.066754 0.025557 -0.11876 -0.29288 0.014535 0.050981 -0.27873 0.05379 -0.069842 -0.26941 0.16702 0.19971 -0.033295 -0.12348 -0.13907 0.23826 0.4378 -0.27253 0.014893 -0.30143 0.44063 -0.012745 -0.005775 -0.36339 -0.52179 0.16036 0.10132 -0.23856 0.019058 -0.25063 0.027214 0.58426 0.075416 0.040223 0.19685 -0.28587 0.16394 0.21386 -0.40932 0.048225 -0.13285 0.034211 0.47913 0.40337 0.43535 0.28637 0.40339 0.035445 0.26338 -0.18294 -0.17505 0.027015 -0.11896 -0.22433 -0.11613 0.35423 0.18326 -0.1169 0.22225 0.13641 -0.022316 0.30009 0.33351 0.8111 -0.29011 -0.036846 -0.084289 0.032652 0.089763 0.37437 -0.40418 0.94637 -0.46754 0.072648 0.21788 0.16322 -0.052127 0.096886 -0.36686 -0.048925 -0.068412 -0.30735 0.19165 -0.41284
carnivore -0.07061 -0.12665 0.19613 -0.076012 0.39085 -0.23261 -0.3467 -0.010338 0.082671 0.023042 -0.28924 0.50516 0.40067 0.39633 -0.19737 -0.16576 0.11107 -0.24037 -0.18949 -0.31863 -0.67231 -0.15031 -0.35004 -0.044519 0.047045 0.25742 0.50007 0.075802 0.032943 0.23972 0.075682 0.16118 -0.16508 0.017306 0.074735 -0.0044942 0.2314 -0.030609 -0.31171 -0.19396 -0.31939 0.26672 0.4113 -0.36173 0.40016 0.16614 0.0041774 0.17484 -0.31473 -0.12316 0.13043 0.095988 0.046644 0.52791 0.046377 0.33981 -0.11119 -0.38805 0.48885 -0.13419 0.2046 -0.062591 0.28154 -0.034322 0.45101 -0.56415 -0.17327 -0.38099 -0.06079 0.037189 0.14539 0.26859 0.37511 0.23868 -0.35125 0.36554 0.21706 0.499 0.19345 -0.030994 0.23849 -0.049933 0.11957 -0.013912 0.037222 -0.0037584 0.046149 0.17486 0.39082 0.14499 0.0054534 -0.73244 0.17023 0.48731 0.075908 -0.080711 -0.34698 0.22498 0.14252 0.26081
party 0.19401 -0.099182 0.45122 0.13205 0.47782 -0.27095 0.079096 0.47004 0.22893 -0.26438 -0.61455 -0.3041 -0.10017 0.042307 -0.034165 -0.38308 0.048592 0.10514 -0.33489 -0.67051 -0.085487 0.0047496 -0.44359 0.41603 -0.26163 -0.17101 0.42773 0.074507 -0.096369 0.27221 -0.17903 0.11757 -0.086299 -0.27184 -0.6029 -0.58626 0.13123 -0.27366 -0.14014 -0.34499 -0.24917 -0.25545 0.082146 -0.38171 -0.21282 0.031872 -0.16778 0.15696 -0.41576 -0.10334 -0.37535 -0.28527 -0.37716 0.70629 -0.36268 0.20438 -0.37927 0.037779 -0.43326 -0.29087 -0.070513 -0.43316 0.22716 -0.1091 -0.033443 1.2534E-4 -0.15647 -0.23983 0.042287 -0.4702 0.21207 0.45538 0.71176 0.1387 -0.25388 0.23191 -0.13958 0.38982 0.039604 0.11478 0.19121 0.13331 -0.31918 0.43418 0.035219 -0.17081 -0.39372 -0.073362 -0.31965 0.68137 0.12314 -0.53137 -0.084249 0.034975 -0.12798 -0.39613 0.34327 -0.52487 0.21215 -0.55152
production -0.26563 -0.15489 -0.37073 -0.42238 0.017474 -0.06854 -0.65115 -0.14084 0.10625 -0.53342 0.1299 0.27062 0.064071 -0.47687 -0.055828 -0.081012 -0.61124 -0.46521 -0.43415 -0.46244 -0.27067 -0.5177 -0.40532 0.13846 0.11893 -0.16064 0.3512 -0.46875 0.21422 0.38129 -0.36463 0.53673 -0.18582 0.16368 -0.13669 0.20295 0.071712 0.056432 -0.32304 -0.0063195 -0.26086 0.27762 0.043309 0.091336 0.023911 -0.13981 -0.38623 0.32899 -0.32997 0.11217 0.59205 -0.04712 -0.18563 0.078632 -0.15698 -0.065446 0.40814 0.020054 0.42576 0.33418 0.49106 -0.24189 -0.40609 0.16849 0.13484 -0.064621 -0.90631 0.16592 -0.32928 0.14923 -0.14477 0.1153 0.22695 0.43256 -0.26434 0.058018 0.24451 0.0038642 -0.27644 -0.14686 -0.51251 0.23384 0.28119 0.32763 0.0086003 0.48458 -0.5513 0.55463 0.23662 -0.37346 0.23282 -0.48249 -0.16975 -0.64652 -0.0079383 0.022624 -0.57868 0.18983 0.23238 -0.62339
importance -0.15995 -0.14472 0.27517 -0.11075 0.24118 0.28428 0.28414 -0.43642 -0.10684 -0.12782 -0.44702 -0.0085484 0.25722 0.2032 0.22703 0.042649 0.0021477 -0.49656 0.12589 -0.26822 -0.36683 0.041546 0.06381 0.21744 -0.23439 0.051245 0.51736 0.043528 -0.21445 0.013532 -0.38309 -0.27376 0.099363 0.41839 -0.3419 -0.40821 -0.50685 -0.029644 -0.082563 -0.12551 0.19176 0.38707 0.052224 -0.12336 0.18811 0.11469 0.0086363 0.32959 0.13809 0.2504 0.32714 -0.1528 -0.0077999 0.9708 -0.27419 -0.0086634 -0.54149 -0.24556 0.1293 -0.2733 0.79433 -0.1121 0.31531 -0.30272 -0.25023 -0.02869 -0.69996 -0.469 -0.59038 -0.18292 -0.35424 0.22478 0.30103 -0.088084 0.15369 0.053406 0.59956 0.12198 0.31442 0.17615 -0.10515 0.39545 0.28676 -0.29177 0.39983 0.16923 0.39514 -0.14143 -0.083033 -0.19065 -0.1037 -0.49083 0.090255 0.054499 0.072207 -0.020807 0.20372 0.052463 0.026861 -0.26657
inmate -0.48422 0.41493 -0.46421 -0.18651 -0.26262 -0.65978 -0.30234 -0.028202 1.0979 -0.4193 -0.46039 0.041563 -0.022859 0.13663 -0.3955 -0.71919 -0.036143 0.27435 -0.46678 0.018637 -0.23417 -0.93449 -0.12324 -0.17827 -0.17959 -0.02864 0.5876 0.060212 -0.042207 0.39898 0.017706 -0.2303 -0.17597 0.2011 -0.68734 0.20739 0.26347 0.023367 -0.25169 -0.56391 -0.55026 0.62232 0.092289 -0.21288 -0.018296 -0.10644 0.35341 0.26648 -0.050948 0.59957 -0.4119 0.070492 -0.47452 -0.20396 -0.26784 0.046071 -0.15167 -0.16344 0.11306 0.48747 0.53248 0.21452 -0.32852 -0.22805 0.43587 0.027087 0.34359 0.45393 -0.075548 -0.14132 0.49856 0.28163 0.3514 0.2208 0.21523 0.38842 -0.44346 0.78183 0.0019532 0.70424 0.12029 -0.22805 0.67966 0.15577 -0.17298 -0.23434 0.28808 -0.21999 -0.16947 -0.23054 0.28565 -0.27446 0.28211 -0.024401 -0.44561 0.084339 -0.44122 -0.14929 0.70576 -0.072027
Harvard -0.58246 0.15463 -0.26746 -0.050077 0.63499 0.221 0.46095 -0.83872 0.35276 -0.32814 -0.57858 -0.11378 -0.33751 0.14456 0.16848 -0.2342 0.097668 -0.34078 0.50484 -0.52711 -0.43718 -0.66546 -0.057396 -0.036806 0.11577 0.014839 0.36255 0.50999 -0.52321 -0.043791 0.30779 -0.047773 0.43325 0.1316 -0.55638 -0.049382 0.11405 0.085126 0.29997 -0.55736 -0.013377 0.98905 0.27782 -0.25103 -0.30331 -0.62967 0.83596 0.35867 0.01059 0.77655 -0.15818 0.014658 -0.66463 0.24702 0.54819 -0.02222 -0.17432 -0.093848 0.18118 0.20387 0.016559 -0.77848 0.76067 -0.175 -0.06401 0.17631 0.17636 0.26526 -0.18611 -0.1529 -0.25167 -0.19856 -0.023231 -0.41128 -0.52953 0.18245 -0.46204 -0.07517 0.19073 -0.005118 0.20617 0.03742 0.048929 0.14609 0.095013 -0.013437 -0.47069 -0.02763 0.0039649 -0.26256 0.3608 -0.80172 0.20043 0.14904 -0.17431 0.30262 -0.6651 -0.32908 0.28564 0.31284
psychology -0.62133 0.20978 -0.038805 -0.14044 0.17698 0.12354 0.19667 -0.42715 0.67521 -0.23378 -0.49193 0.10711 -0.060448 -0.14154 -0.13658 -0.31213 -0.063439 -0.52115 -0.086955 -0.15829 -0.22293 -0.36276 0.18549 0.20672 -0.23817 0.12469 0.27969 0.1161 -0.74831 0.13069 -0.12305 -0.62527 0.20356 0.086818 -0.96562 -0.11464 -0.26785 -0.22788 0.12114 -0.95477 0.51021 0.96923 0.13298 -0.76824 0.20928 -0.21923 0.39308 0.123 0.22767 0.74063 0.55424 0.46496 0.051148 0.12554 0.38708 0.56011 -0.26354 -0.050775 0.57002 0.36327 0.34609 -0.079503 0.39838 -0.26739 0.32431 0.29206 0.401 -0.22605 -0.5176 -0.28833 -0.21839 0.49545 -0.016152 -0.20378 -0.20663 0.18575 -0.17014 -0.024326 0.095924 -0.0090087 0.25757 0.070224 0.50155 0.14143 0.43159 0.35494 -0.08975 -0.30048 1.0599 -0.43859 0.066598 -0.77667 0.35772 0.5797 -0.15101 0.094327 -0.63084 -0.15672 -0.4073 0.022669
medal -0.21413 -0.46137 -0.23431 -0.30408 0.4496 -1.1492 0.23731 -1.1511 -0.15885 0.10522 -0.77601 -0.43302 -0.099798 -0.071699 0.26698 -0.63187 0.55497 -0.7038 0.38266 -0.43477 0.47141 -0.39113 -0.69638 0.1972 -0.31863 -0.57087 0.91641 -0.38869 -0.049335 0.94483 -0.66803 0.49829 0.10308 -0.13645 -0.45306 0.49852 -0.5053 0.25343 -0.46525 -0.31222 -0.89613 0.12844 -0.23214 -0.34437 0.20642 -0.25512 0.62584 0.67338 0.14691 0.6411 0.50555 -0.35391 0.47176 0.15568 0.82801 -0.64794 -0.68791 -0.45749 0.47113 -0.89817 0.35242 -0.35795 0.52651 -0.26476 -0.54571 -0.44681 0.40134 0.12943 -0.22437 0.32887 -0.24129 -0.28192 0.41372 -0.21781 0.27995 0.56694 0.35798 0.6898 -0.12179 -0.11415 0.19207 -0.25299 0.035158 -0.55937 -0.61389 0.16514 0.90693 0.3548 0.13164 0.91212 -0.36887 -0.75752 0.43796 -0.48679 -0.48568 -0.4647 0.01503 0.26285 -0.33733 -0.41353
company -0.10847 -0.53085 -0.083535 -0.53419 0.21123 0.40854 -0.15698 0.059334 -0.013977 -0.56699 0.082444 0.39979 -0.21189 0.04509 -0.2131 -0.27811 -0.20236 0.24143 0.1541 -0.10394 0.30239 -0.10899 -0.1641 -0.030532 0.24654 -0.011322 0.55977 0.24163 -0.00319 0.29428 -0.2442 0.51194 -0.17461 -0.078611 -0.2119 -0.29276 -0.1816 0.063812 0.29608 -0.32892 -0.20415 0.41059 0.31691 0.069597 0.4074 -0.17822 0.26324 0.33589 -0.072219 0.25428 0.0032217 -0.23499 -0.12707 0.16714 -0.22118 0.11056 0.2751 -0.15201 0.10716 0.28387 0.46597 -0.31761 -0.16335 0.28747 -0.11223 -0.45302 -0.36222 -0.093418 -0.15533 -0.32526 -0.15083 0.025523 0.035626 0.33315 -0.11169 0.049226 -0.17465 0.3323 -0.3023 -0.025919 -0.40155 0.27665 0.22879 0.072391 0.2271 0.24693 -0.45959 0.28545 0.12785 0.46899 -0.086071 -0.5891 0.11199 -0.35592 -0.04353 0.016674 -0.22665 -0.25048 0.48677 -0.35083
live -0.33144 0.045679 0.17823 0.055707 -0.139 -0.20647 -0.45022 0.67855 -0.057102 4.6443E-4 -0.29827 0.49345 0.030457 0.24836 -0.026945 -0.60388 -0.027917 -0.20346 -0.37089 -0.37074 0.027279 0.27147 -0.19 0.33474 -0.066316 0.027958 0.38599 -0.36022 0.077082 0.22515 -0.052523 0.15551 0.064164 -0.030081 -0.81098 0.40021 0.12824 0.0049851 -0.35387 0.024376 0.05712 0.38638 0.4939 0.089632 0.1349 0.22368 0.47429 0.2363 -0.38708 -0.16454 0.16673 0.036488 -0.04348 0.37296 -0.14381 0.45513 0.23172 0.23817 -0.40307 -0.3876 0.62144 -0.35817 0.12266 0.10846 0.6617 -0.20635 0.070575 0.11804 -0.12573 0.23427 -0.051394 0.39736 0.37933 -0.045802 -0.62506 -0.28516 0.34846 -0.19885 0.011377 -0.075098 -0.26982 -0.10689 0.50806 -0.36051 0.26106 0.14523 0.050814 -0.15493 0.032408 -0.36625 0.021674 -0.048861 0.49826 0.074406 -0.69521 -0.37402 -0.15942 -0.23072 0.21667 -0.11353
holy 0.07652 0.40291 -0.33239 -0.51623 0.38711 0.019839 -0.30404 -0.089827 0.3799 0.15686 -0.38372 -0.25751 0.01767 0.71338 0.56307 -0.27612 0.29197 -0.17224 -0.12601 -1.5447 -0.41884 -0.27814 -0.65851 0.20633 -0.31138 -0.091086 0.13076 0.099759 -0.16566 0.64828 0.038006 -0.33582 -0.35932 0.24468 0.086701 -0.46821 0.62476 -0.11835 0.056654 -0.24333 -0.35698 0.17256 0.26533 -0.29002 0.59452 0.53816 0.5684 0.34606 -0.52317 -0.09838 -0.23852 -0.63124 0.21664 -0.5411 -0.012981 0.2938 -0.19052 0.55035 0.49383 -0.55512 1.274 -0.23666 0.65672 -0.33256 0.074167 -0.80784 0.41635 0.1344 0.31547 -0.42531 -0.46858 0.22659 0.58127 0.12904 -0.045188 0.4469 0.064603 0.10619 0.47386 -0.061589 0.64208 0.097696 0.72092 -0.097024 0.24106 0.074898 -0.072503 0.19121 0.017576 -1.1474 -0.077634 -0.034792 0.52883 0.20284 -0.19277 -0.12793 0.09599 0.52199 0.044723 -0.24023
ticket -0.038039 -0.48256 0.12331 -0.72662 -0.27212 0.099898 -0.54543 -0.22261 0.14259 -0.32938 -0.66396 -0.43788 0.067087 -0.1095 0.4015 -0.53669 0.094793 -0.14168 -0.045806 -0.48876 0.35511 0.24535 -0.61303 0.53159 -0.17223 -0.59985 0.087333 0.20855 0.56294 -0.17291 -0.20374 0.32481 0.094155 -0.076917 -0.077181 -0.60685 0.4962 0.48517 -0.38238 -0.56592 -0.83437 0.070174 0.41715 -0.21166 0.23422 0.10514 0.30775 0.67012 -0.30543 -0.24328 0.49472 0.23506 -0.27123 0.25853 0.0049442 0.16925 -0.17064 -0.31621 0.057734 -0.24434 -0.15601 -0.46358 0.26426 0.37565 0.47896 -0.18771 -0.22813 -0.48743 0.1865 0.11859 0.27849 -0.016579 0.045811 -0.071574 0.18635 -0.20403 -0.19801 -0.50869 -0.28756 0.48042 0.36275 -0.20985 0.13544 0.11447 0.59303 -0.39514 -0.31707 0.19399 -0.2404 0.76191 -0.17932 -0.12498 0.45077 -0.003829 0.1652 -0.0022734 -0.029318 -0.65825 0.11095 -0.48984
victory -0.099164 -0.40986 0.22045 0.31688 0.098391 -0.25502 0.027685 -0.2011 -0.21397 0.069048 -0.58931 -0.47841 0.061 0.088381 0.73085 -0.69777 0.16312 -0.13983 -0.13543 -0.32587 0.12144 -0.40956 -0.85562 0.198 -0.15956 0.16444 0.13443 0.09461 -0.066153 0.67258 -0.24663 -0.20344 0.27126 -0.33216 -0.72245 -0.083472 -0.43361 -0.081725 -0.099067 -0.23322 0.0022914 0.2189 -0.44122 -0.048257 -0.66192 -0.21995 0.3342 0.31762 0.53839 -0.55594 0.87171 -0.17684 -0.38583 0.24338 -0.025521 -0.059916 -0.41407 -0.30822 -0.0035962 -0.56463 0.57785 -0.34995 0.36396 0.40563 -0.39339 -0.33792 0.35595 0.29268 0.51225 -0.499 -0.193 0.69709 0.069498 0.092198 -0.078257 0.46541 0.66852 0.11774 0.34107 0.64428 -0.22909 0.23645 0.18842 0.08838 0.38711 -0.42701 0.67503 0.53954 0.051665 0.41349 0.010088 -0.59732 0.38674 -0.13166 0.28142 -0.15852 0.20352 -0.28474 -0.10858 -0.4358
football -0.50217 -0.45822 0.3544 -0.31673 -0.11375 -0.093331 -0.11839 -0.14888 0.10191 0.44238 -0.70469 -0.15094 0.60059 0.12551 -0.0017312 -0.17046 0.14554 0.21957 -0.2603 -0.21278 -0.21711 0.15363 -0.1408 0.56019 -0.14697 -0.2769 -0.28597 -0.40966 0.061649 0.52527 0.29463 0.25531 0.30279 -0.64336 -0.34811 -0.64888 -0.54897 0.19342 -0.18694 -0.089868 -0.59583 0.54789 0.051354 -0.1955 -0.050291 -0.40871 0.26254 0.82747 -0.65991 0.51381 0.4461 -0.018432 -0.22027 0.074471 -0.15826 0.25376 0.082174 -0.45927 0.031446 -0.279 0.58809 -0.058637 0.55971 0.13732 -0.12386 -0.0017223 0.0058327 -0.47091 0.061577 -0.14599 -0.098443 0.1402 0.5893 -0.071345 -0.3392 0.37367 -0.20307 -0.10196 -0.1052 0.017869 -0.186 0.014728 0.0458 -0.020185 0.2892 0.25052 -0.22961 -0.15476 0.62132 -0.11915 -0.10799 -0.66307 0.10415 0.14388 -0.22662 -0.3914 -0.682 0.13485 -0.673 0.24873
stroke -0.012861 -0.15975 -0.27016 0.46945 -0.10734 -0.60861 -0.07344 -0.54918 0.35924 0.036254 -0.50746 0.45049 -0.27649 -0.40847 0.3659 -0.075764 0.87218 -0.48158 -0.3628 -0.02769 -0.25385 -0.17235 -1.1211 0.58895 -0.41703 0.014855 0.51112 0.39278 -0.57898 0.47509 -0.6276 0.84874 -0.4868 0.10757 -0.58783 0.13452 -0.25319 0.3971 0.30145 -0.30809 0.041065 0.57424 0.33619 0.69261 -0.7399 -0.01533 -0.042346 0.31111 0.47587 0.40397 0.18934 0.30327 -0.16147 0.65094 0.13774 0.62606 -0.28194 -0.082903 0.22992 0.0138 -0.011916 0.31152 -0.040413 0.43468 0.047853 -0.24653 0.38264 0.24505 0.0012437 -0.34818 -0.25216 0.22022 0.019248 -0.28974 -0.22251 0.28209 0.040473 0.46527 -0.065325 0.25021 0.52246 -0.27663 0.12477 0.01269 -0.073096 0.70621 -0.10531 -0.10996 -0.14133 0.22598 0.13826 0.0040598 0.36115 0.52309 -0.029544 -0.26791 -0.42645 -0.62095 0.49752 -0.039074
environment 0.15987 0.0034905 0.089814 -0.23833 0.22738 0.1031 -0.10347 -0.12804 0.24166 -0.18426 -0.22545 0.52416 0.074382 0.22888 0.081817 -0.1041 -0.28529 -0.48184 -0.27494 -0.2668 -0.055612 -0.1481 0.087237 0.12555 -0.5104 0.32048 0.18613 -0.31715 -0.027419 0.08838 -0.11339 0.060346 -0.048904 0.32311 -0.53436 0.14337 -0.32619 -0.031861 -0.07214 -0.38008 0.21478 -0.16345 0.25852 -0.019788 0.31786 -0.078446 0.57855 0.31006 -0.078537 0.073101 0.13027 -0.31695 -0.37229 0.66012 -0.50807 0.09377 -0.30243 0.0064365 -0.098496 0.19066 0.4223 0.3298 -0.045142 0.1164 0.13472 0.28746 -0.72345 -0.4682 -0.4824 -0.024065 0.38413 0.31111 0.23361 0.20294 -0.36797 0.42978 0.1589 -0.065395 -0.019998 -0.32113 0.41043 0.75405 0.51901 -0.13832 0.14397 0.24682 -0.35132 0.26911 0.024708 0.20768 -0.15445 -0.63275 0.6062 0.15486 -0.13459 -0.50176 0.3046 -0.43014 -0.15341 0.0648
coffee -0.27628 0.082599 0.26196 -0.22201 0.6016 -0.16302 -0.19638 -0.30063 0.088177 -0.31621 -0.29198 0.14135 -0.15774 0.072774 -0.20763 -0.41844 0.20544 -0.31186 -0.092692 -0.34982 -0.2699 -0.13361 -0.20132 -0.085397 0.3657 -0.27236 -0.36259 0.20978 0.081754 0.47985 -0.086457 0.59796 0.0052388 0.32777 -0.069606 -0.2124 0.15231 -0.032227 0.066452 -0.55706 -0.5799 0.20284 0.87963 -0.054816 -0.33069 0.41433 0.31575 0.23218 -0.18886 -0.5606 0.18958 0.38486 0.28191 -0.65527 -0.37487 -0.20167 -0.2855 -0.40262 0.31364 0.075147 0.81185 -0.28485 0.42154 0.10354 0.017312 -0.81607 -0.27524 -0.48388 -0.2462 -0.34524 0.66254 0.11902 0.46331 0.22014 -0.074276 0.0039065 0.13941 0.043141 0.033813 -0.10023 0.55455 -0.1254 0.33389 0.35902 0.44032 0.46506 -0.90116 -0.46949 0.14722 0.35162 -0.27557 -0.24445 0.0033934 0.010528 -0.15857 -0.29224 -0.21272 0.35864 0.59231 -0.047571
baby -0.072795 0.023257 -0.043432 -0.068416 0.2612 -0.39335 0.0020758 0.078986 -0.10661 -0.27221 -0.43361 0.37307 -0.35321 -0.032655 0.094923 -0.174 0.36452 -0.023985 -0.72865 -0.62267 0.20554 -0.058622 -0.0068591 -0.19091 0.4897 0.5148 0.41619 0.40743 0.22033 0.64939 0.026368 0.41161 0.3263 -0.17519 -0.16074 0.43222 0.13787 0.28063 -0.39722 -0.31501 0.1399 0.47645 0.58617 -0.36508 0.044273 0.42146 0.11056 0.56301 0.31752 0.25737 -0.25964 0.055963 0.17167 0.54673 -0.53098 0.034639 -0.0077741 -0.40416 0.40457 0.85561 0.46165 -0.17452 -0.070883 -0.49521 -0.0053531 -0.42503 -0.34465 -0.56002 -0.18219 -0.25815 0.18232 0.042116 0.62707 0.13144 -0.18985 0.19949 0.4361 0.59019 -0.073299 0.50123 0.042837 -0.075871 -0.0063997 -0.1202 -0.347 0.059448 0.11936 -0.52547 -0.13509 0.50818 -0.1152 -0.16277 -0.021955 0.087716 0.084679 -0.30925 -1.1523 0.58056 0.48246 -0.20225
personnel -0.25441 -0.41806 0.36917 0.23889 -0.35744 0.26896 -0.019981 -0.51292 0.67635 0.096422 -0.17625 0.089915 -0.50349 -0.3726 -0.20415 0.041473 -0.20338 0.093285 -0.33358 0.17866 0.24436 -0.435 -0.058549 0.21802 0.32381 0.061059 0.38136 -0.34639 -0.22638 -0.07031 0.1227 -0.0079655 -0.27123 0.43662 -0.31114 -0.21455 0.22782 0.67764 -0.46168 0.21566 -0.42378 0.4375 0.13959 0.22456 0.41038 -0.35745 0.28396 0.5124 -0.45853 0.13445 -0.37561 -0.36943 -0.14583 0.43247 -0.058283 -0.12442 0.19064 -0.24919 0.18596 -0.13056 1.0757 0.31741 0.052214 -0.16088 0.31658 -0.11359 -0.49833 -0.09312 -0.081396 -0.25848 -0.39754 0.043593 0.19947 -0.023939 0.5807 0.35308 -0.57138 0.28293 0.046613 0.52827 -0.047554 0.17657 0.7386 0.2132 -0.035316 -0.15787 -0.037104 0.34597 -0.19477 0.11483 -0.046409 -0.6654 0.36556 -0.32239 -0.041533 0.019144 0.26891 -0.15655 -0.14448 0.24283
family 0.5292 -0.32142 0.26538 -0.065129 -0.0031051 -0.11426 -0.20538 0.3896 -0.11738 -0.36934 -0.206 0.40055 -0.16931 0.33964 -0.16878 -0.0042937 0.21803 0.4047 -0.17631 -0.36241 -0.038062 0.052403 -0.24225 0.10795 0.18947 -0.15385 0.64855 0.048137 0.16129 -0.15846 -0.0025332 -0.14999 0.10279 -0.01892 -0.60796 0.12052 0.047516 0.23211 -0.26954 -0.10544 -0.31537 0.86625 0.081759 -0.099379 0.32649 0.16865 0.0091816 0.27326 -0.08532 0.28316 -0.012039 0.024822 -0.059668 0.33625 -0.22962 0.48513 -0.28387 -0.0071554 -0.078805 -0.12724 0.74148 -0.22207 0.35692 -0.35247 0.3143 -0.21855 0.14747 -0.39726 -0.17716 -0.018658 0.12246 0.74021 0.31599 -0.029811 -0.15799 0.28385 -0.26973 0.20882 -0.088745 0.17075 0.58691 0.11442 -0.075845 0.021626 0.1187 0.01169 -0.16324 -0.11416 -0.027092 0.023574 -0.20672 -0.28342 -0.023784 -0.26518 -0.2348 -0.26034 -0.35644 -0.2153 0.28564 -0.32471
hypertension -0.56942 -0.02192 -0.018236 -0.048645 0.22648 -0.17742 -0.28555 -0.32667 0.37688 -0.49087 -0.57352 0.32258 -0.076193 -0.34284 -0.18947 0.01869 0.5327 -0.88089 -0.50971 -0.49096 -0.32549 0.010735 -0.14547 0.2541 -0.22226 0.27215 0.38253 0.40638 -0.43308 -0.26379 -0.17244 0.21117 -0.45755 0.68559 -0.57109 -0.018124 0.11311 0.24745 0.18487 -0.19037 0.39993 0.42371 0.12193 0.080946 -0.37591 -0.048346 0.054354 0.67637 0.15587 0.45219 0.045839 0.31687 -0.50476 0.52405 -0.080213 0.13168 0.23291 -0.50682 0.73611 0.263 0.32048 -0.14697 -0.018958 -0.053953 0.46956 -0.008518 -0.11284 -0.0068715 0.23727 -0.088334 -0.087595 0.31674 0.21603 -0.35354 0.10379 0.04812 0.079283 0.38981 -0.1056 0.37419 0.26222 0.1885 0.49083 -0.034159 0.24586 0.49512 -0.1042 -0.53364 0.4413 0.077652 0.10268 -0.60068 0.27489 0.58556 -0.2734 0.13109 -0.076377 -0.18248 0.34333 -0.15502
president -0.25884 0.22138 -0.093797 -0.0092902 0.36901 0.11834 0.36038 -0.041224 0.22696 -0.47324 -0.59122 -0.14141 -0.016217 0.028879 0.36083 -0.10671 0.23785 0.32226 0.30584 -0.10802 0.069331 0.35674 -0.21131 0.24444 -0.25934 -0.22027 0.33449 -0.15765 0.16072 -0.071699 -0.018773 -0.060502 0.74899 0.38318 -0.5115 -0.34758 -0.22289 0.49708 -0.24996 -0.71686 -0.29482 0.078716 0.15437 0.079395 -0.3796 -0.079038 0.19327 0.77262 -0.29334 0.19045 0.10561 -0.3331 -0.2398 0.29756 -0.10313 -0.32994 0.11901 0.058841 -0.38125 0.078455 0.29246 -0.34042 0.20352 -0.27425 -0.49591 -0.052934 -0.30106 0.056455 0.2283 -0.21988 -0.13329 0.35249 0.34362 0.10917 0.23845 0.25737 0.16018 0.30082 -0.18227 0.34799 -0.28396 -0.022675 -0.12892 0.66269 0.082649 0.21552 -0.60458 0.086461 0.41527 0.13717 0.29846 -0.60378 0.48894 -0.083256 0.22573 -0.34518 -0.21535 0.11088 0.50468 -0.30834
atmosphere 0.44345 -0.35373 -0.050707 -0.43497 0.58058 -0.36823 -0.23057 0.2057 0.088027 0.48 -0.10643 -0.053706 0.40466 0.15866 0.020639 -0.14836 -0.23066 -0.83007 -0.84677 -0.45475 -0.77437 0.034934 0.065817 0.78759 -0.64573 -0.13125 0.023629 -0.14515 -0.091945 0.22491 0.1501 0.11531 -0.017524 0.45341 -0.10543 -0.30036 0.18453 -0.21063 -0.39547 -0.32649 -0.11591 -0.045443 -0.2561 -0.16265 -0.14917 -0.12157 0.24682 0.65018 -0.36056 -0.090357 0.53989 -0.37318 -0.10053 0.72962 -0.43505 0.12576 -0.24279 -0.16509 0.10388 -0.10565 0.18697 0.28373 0.46878 0.13214 0.10933 -0.27891 -0.66399 -0.061302 0.15194 -0.035185 0.42545 0.31402 -0.14541 0.33414 -0.47729 0.12808 -0.33918 -0.025504 0.39604 -0.49461 0.44967 0.039633 0.45379 -0.29566 0.17147 0.2625 -0.19048 0.57354 0.15391 0.12289 -0.1136 -0.74559 0.65835 0.19161 -0.12011 0.23463 -0.24738 -0.23421 0.3746 0.12529
practice -0.53784 -0.19662 0.14286 -0.021411 0.14223 -0.044579 -0.28077 -0.43661 0.34963 0.12163 -0.2056 -0.31274 -0.24063 0.14572 0.11575 -0.0094494 0.27409 -0.16412 0.029674 0.0034317 0.060377 -0.16153 -0.28098 0.22217 -0.099665 0.045599 0.40478 -0.040655 -0.4952 0.32449 0.053997 -0.15825 -0.33141 -0.52139 -0.3172 -0.091797 0.2476 -0.61404 0.22299 0.083246 -0.21393 0.47326 0.33262 -0.043257 0.33818 -0.12405 0.018958 -0.033982 0.52522 0.21663 0.06669 -0.33444 -0.25814 0.061094 -7.595E-4 0.36095 0.19023 -0.48818 -0.4459 0.41486 0.35402 -0.49318 0.11616 0.19121 -0.018799 0.27958 -0.32621 -0.11101 -0.46226 -0.63972 -0.056637 0.049722 0.31645 0.11886 0.12299 0.10729 -0.088454 0.49938 0.51588 0.16463 0.31532 0.57176 0.57628 -0.41744 0.29792 0.49023 -0.35271 0.081721 0.28316 -0.37373 -0.11417 -0.43116 -0.019339 0.32367 -0.10041 -0.71524 0.080435 -0.01534 -0.12197 0.33832
movie 0.43811 0.17367 -0.22553 -0.71779 0.10249 0.37982 -0.17339 0.012063 0.028246 -0.39588 -0.062554 0.40281 0.064463 -0.50397 -0.23539 -0.46887 -0.17591 -0.27174 -0.36293 0.15181 -0.55647 -0.22399 -0.65553 0.23335 -0.22558 -0.16102 0.7316 -0.35476 0.17338 0.57333 0.19241 -0.057207 0.0083656 -0.36173 -0.7479 -0.12348 -0.26567 0.30212 -0.4401 -0.55722 -0.5249 0.5682 0.58244 -0.37225 0.051163 -0.24697 0.40364 0.2663 -0.26353 0.051064 0.62989 0.28301 -0.0325 -0.015274 0.11017 0.30331 0.61935 -0.2125 0.19319 -0.22433 0.075229 -0.2384 0.41466 -0.085431 0.6799 -0.38837 -0.41085 -0.077926 0.015889 0.045345 0.047605 -0.2496 0.51367 0.28915 -0.50633 0.0076788 -0.17876 0.42605 -0.50995 -0.21164 0.052371 -0.25329 -0.10983 0.46258 0.010776 -0.17045 0.21966 -0.1335 0.060794 0.11379 -0.20352 -0.12096 0.25329 -0.17776 0.16289 0.10217 -0.59055 0.14381 -0.17091 -0.82864
popcorn 0.189 -0.095112 -0.26676 0.20617 0.3596 0.05165 -0.28993 0.34928 -0.013899 -0.23252 -0.26491 0.20259 0.42882 -0.082074 -0.32974 -0.43524 0.063132 -0.81614 -0.33362 -0.74928 -0.65499 -0.37564 -0.35075 0.01287 0.27799 -0.18866 0.029018 -0.015875 0.52974 0.61757 0.25867 0.20992 -0.074817 0.45531 -0.004704 0.086162 0.18329 0.15228 -0.25475 -0.17475 -0.32921 0.16795 0.63426 -0.27107 -0.09587 0.092455 0.22709 -0.011606 0.026818 -0.25628 0.56112 0.065794 -0.28442 -0.39119 -0.058077 0.37941 0.13281 -0.79338 0.62149 0.40287 0.20527 -0.035599 0.18387 0.50938 0.20576 -0.62871 -0.41851 -0.4152 0.065729 -0.31275 -0.0046071 0.12417 0.52881 0.25309 -0.044508 -0.1329 -0.027289 0.33992 -0.0021725 0.042685 0.24028 -0.229 0.16544 0.35749 0.37619 0.3818 -0.24369 -0.37875 0.42866 0.30495 -0.40092 -0.4449 0.29971 -0.076003 -0.42563 -0.12004 -0.7083 0.4009 0.019678 -0.35053
recommendation -0.092814 0.23073 0.039198 -0.21364 0.21651 0.3773 0.12821 -0.56368 -0.17585 -0.30285 0.28917 0.20548 -0.097164 -0.20608 0.86187 -0.0027295 0.18008 -0.43119 0.4315 0.25161 0.13651 0.13391 -0.02046 -0.16248 0.37916 -0.34411 0.53901 0.0088076 0.10032 0.13664 -0.060631 0.031808 0.10479 0.28922 -0.61634 -0.43884 0.35295 -0.05918 -0.26526 -0.30953 -0.12726 0.015459 0.30419 0.14389 0.1174 -0.19893 0.044064 0.43282 -0.0771 0.46638 -0.097264 -0.5388 -0.28419 0.40232 -0.14083 0.14601 -0.48399 -0.56728 0.28031 0.45367 0.77366 -0.074987 0.22558 0.49998 0.44081 0.001843 -0.020007 -0.21275 -0.32844 0.049137 -0.31444 0.15665 0.0024694 -0.092934 0.58133 -0.076014 -0.17831 0.48788 0.28562 0.028928 0.055459 -0.047046 0.49654 0.38828 0.12471 0.3555 -0.091194 0.043557 0.18637 0.19901 -0.090619 -0.08643 -0.47184 0.15734 0.21266 -0.63778 0.042816 -0.25124 0.23038 -0.59287
focus -0.015369 -0.36425 0.41056 -0.1304 0.020459 -0.12587 0.031692 -0.68334 -0.17764 -0.46725 -0.10119 0.16608 -0.10188 0.13615 0.50707 -0.22308 -0.16723 -0.40287 -0.17714 0.21408 0.061956 0.12442 0.21272 0.25307 -0.089606 -0.25102 0.58258 0.0028091 0.038431 -0.092112 -0.10502 0.42239 0.24018 0.36302 -0.38086 -0.50601 -0.044135 -0.36366 0.16241 -0.33322 0.022942 0.35802 0.20759 0.098018 0.26651 0.10967 -0.028224 -0.055033 0.082145 0.4563 0.64586 -0.69281 -0.049101 0.66172 -0.25317 0.23231 0.13385 0.090872 0.060244 0.042033 0.32919 -0.32774 0.16194 0.0022644 0.21973 0.1243 -0.2 -0.36962 -0.40482 -0.2293 -0.28434 0.18658 0.80515 0.24683 -0.063186 0.093591 0.54943 0.11042 0.33172 -0.018509 0.078837 0.56591 0.33474 0.079168 0.17693 0.077502 -0.066907 -0.023177 0.1257 -0.25571 0.24041 -0.11013 -0.10543 -0.042397 -0.018086 -0.095317 -0.11383 -0.04005 -0.2746 -0.10391
attempt 0.28312 0.02234 -0.1141 -0.36618 0.096762 -0.12287 -0.014427 0.014175 -0.13118 0.35473 -0.33747 -0.15692 0.26182 -0.081934 0.55987 -0.21326 -0.22514 -0.34971 -0.86646 0.23113 -0.34628 -0.34044 -0.34943 0.14265 0.040937 -0.20826 0.50859 0.80528 0.18425 0.68865 0.15498 0.052481 0.015105 -0.33725 -0.041733 -0.076341 0.059617 0.085654 0.26023 -0.19049 -0.4559 0.075511 -0.1737 0.0084401 0.21566 -0.046819 0.053277 0.58765 0.18134 -0.069342 -0.15857 -0.54491 -0.09005 0.47816 -0.21672 -0.13176 -0.42351 0.052038 -0.27885 -0.25833 0.48448 -0.14228 0.27411 0.1325 0.014489 0.075733 -0.14408 -0.12549 -0.099961 -0.40419 0.34535 0.73987 0.1767 -0.31639 -0.19125 0.088396 -0.177 0.57481 -0.21132 0.27451 -0.47869 -0.097423 0.33807 0.26148 -0.41425 -0.050357 -0.26289 0.3268 0.50385 0.066 -0.15296 0.062115 6.2656E-4 0.28502 0.45539 0.25746 0.53147 -0.28422 0.027299 -0.18485
approach 0.079618 0.045133 -0.060961 -0.31359 0.40596 0.10749 -0.091638 -0.58551 0.23869 -0.010058 0.080983 0.37567 -0.15298 -0.00145 0.70182 0.040121 -0.09912 -0.4343 -0.39278 0.58332 -0.24354 0.15097 -0.18538 0.076921 -0.50629 0.11658 0.50003 0.1363 -0.22406 0.2935 0.27037 -0.32478 0.23227 0.018405 -0.33631 -0.46892 -0.041962 -0.1879 0.59132 -0.27944 0.025762 0.19443 0.096649 0.079696 -0.018849 0.45062 0.067704 0.4303 0.15817 0.0047027 0.22648 -0.28119 -0.077392 0.74585 -0.15208 -0.22211 0.12173 0.034323 0.0042766 0.17864 0.35041 0.016193 -0.020353 0.39763 0.1807 0.36371 -0.386 -0.18239 -0.23143 -0.31223 -0.37865 -0.024086 0.28406 0.15858 0.11685 0.28047 0.20666 0.34538 0.26744 -0.12464 0.1545 0.23616 0.54819 0.1397 0.3016 0.24852 -0.064005 0.13806 0.39049 -0.18102 0.097671 -0.39248 -0.11105 0.053462 0.21552 -0.30851 -0.046237 -0.55876 0.36023 -0.049191
number -0.25788 -0.40418 -0.34584 -0.073405 -0.10645 -0.012696 -0.35205 -0.49193 -7.1153E-4 -0.20936 -0.15232 0.25958 0.017926 0.5157 0.49296 -0.29866 -0.12998 -0.63326 0.014914 0.05024 -0.36573 -0.2965 0.005131 0.051544 0.2619 0.1339 0.57532 -0.11661 0.18071 -0.24079 -0.44612 0.27622 -0.093307 -0.4679 -0.03376 0.27243 -0.041009 0.22627 0.09249 0.1001 -0.23722 0.069341 0.042943 0.31909 -0.15344 -0.09125 -0.036526 0.044755 -0.46604 -0.32286 -0.11144 0.041069 -0.036845 0.72606 -0.01849 -0.019923 -0.11989 0.12267 0.54979 0.2281 0.73341 -0.12043 0.083552 0.22234 0.51206 -0.1011 -0.34964 0.043265 -0.1127 -0.70927 -0.10411 -0.092527 0.45717 -0.096865 -0.031767 -0.18841 -0.17693 0.074935 -0.11245 0.60999 0.12491 -0.51855 0.24161 -0.40503 0.017856 -0.077599 -0.032924 0.011595 -0.57818 0.18473 0.64851 -0.5057 0.3854 0.2124 -0.24664 -0.16404 -0.086173 -0.2681 0.090928 -0.071817
property -0.21083 -0.60284 -0.022352 -0.15045 -0.62677 0.19464 -0.4602 -0.11212 0.30777 -0.020798 -0.16862 0.35536 0.30311 0.28398 -0.15578 -0.65432 -0.45668 0.12096 0.13719 -0.70257 -0.028857 0.40141 -0.33086 0.015912 -0.37782 -0.22862 0.54049 -0.11617 -0.092631 -0.15507 -0.22103 0.13373 -0.078394 -0.17511 -0.54826 0.34719 -0.11103 -0.064788 0.44463 -0.40692 -0.073546 -0.048766 0.41191 -0.040064 0.63408 0.062194 -0.27623 0.16648 -0.16786 0.14894 -0.32828 0.22565 -0.13799 0.3389 0.031295 0.24153 0.17611 0.098733 0.096937 -0.30946 0.39439 0.099348 0.17994 -0.10602 0.068434 0.07149 -0.1454 -0.40649 -0.36886 -0.015274 0.45486 0.57541 0.039357 0.16336 -0.48062 0.83026 -0.3707 -0.23971 -0.58716 0.52601 0.3992 0.4088 0.66706 0.25106 0.010171 -0.06778 -0.43501 0.12111 -0.31855 0.38346 -0.70912 -0.35376 0.29821 -0.10893 0.17202 -0.12701 -0.18373 -0.093535 0.48783 -0.37317
fingerprint -0.16963 0.21853 -0.076949 0.28984 -0.58171 -0.27518 -0.092681 -0.016198 0.12639 0.10052 -0.41123 0.23831 0.46642 0.36337 0.45157 -0.47499 -0.22812 -0.5183 0.060118 0.070575 0.098642 -0.38013 -0.17899 0.15811 0.40923 -0.32156 0.47691 0.15494 -0.49465 0.038686 -0.24516 -0.11602 -0.57749 -0.091116 -0.4455 -0.29217 0.46938 -0.1262 0.077303 -0.48372 -0.37536 0.35612 0.46959 -0.17764 0.41242 -0.17316 0.44597 0.11934 -0.068022 0.37781 -0.33036 -0.18083 0.49568 0.38889 -0.060405 0.2524 0.17107 0.041566 0.17438 0.65492 0.38608 -0.2588 0.20788 0.02146 0.056182 -0.23803 -0.6424 0.052179 -0.28268 0.14488 -0.26053 -0.027318 0.14327 -0.32316 -0.13928 0.050395 -0.0043347 0.51515 -0.086934 0.8059 0.063216 -0.28999 0.37801 -0.032137 0.012276 -0.21277 0.58761 -0.45254 0.39331 0.46419 -0.18251 -0.36709 -0.28808 0.63797 0.11354 0.26376 -0.30156 -0.27289 0.41545 -0.035906
reservation -0.16212 -0.34769 -0.048558 -0.10823 0.10946 0.35034 -0.37125 0.047359 0.14637 -0.20927 -0.066705 0.12225 0.036818 -0.19481 -0.080129 -0.12196 -0.14225 -0.012069 0.23355 -0.27787 0.12177 0.27581 -0.054494 0.18448 0.040994 -0.06012 0.32372 0.15547 0.24322 0.27119 -0.1814 -0.0076849 -0.27754 0.13349 -0.74505 -0.1872 0.23614 0.24247 -0.0089786 -0.018905 -0.49311 -0.012014 0.29249 0.061304 0.26795 0.39301 0.089589 0.27866 -0.064465 0.058989 -0.32729 0.018094 -0.3177 0.41883 -0.078958 0.13344 -0.21868 -0.29148 0.062966 -0.17434 0.67065 -0.35671 0.17459 0.23892 0.40439 -0.096608 -0.31062 -0.097223 0.23578 -0.30262 -0.029608 0.33143 -0.26663 0.039809 -0.016623 0.31883 -0.12728 0.199 0.25233 0.28682 0.36703 -0.14667 0.51118 -0.37012 0.33048 -0.38287 -0.38506 0.093984 -0.010374 0.0016672 -0.41129 -0.41928 -0.015673 -0.045464 0.29585 -0.25837 -0.31752 -0.35693 0.15809 0.1208
block -0.11999 0.22509 0.25943 0.21711 0.18275 -0.24633 0.084421 -0.20589 -0.1598 -0.099324 0.16486 -0.023359 0.13809 -0.03112 -0.033635 -0.46764 -0.31309 -0.44301 -0.445 -0.098812 -0.37846 -0.019566 -0.09525 -0.028981 -0.0091719 -0.185 0.64591 0.22695 0.10297 0.25495 -0.23068 0.06225 -0.016805 0.013321 -0.65535 -0.062117 0.78626 -0.042481 0.54436 -0.45607 0.06635 -0.24042 0.036386 -0.13 0.44422 0.043662 0.10598 0.61134 -0.32699 -0.24643 0.13995 0.5248 -0.26425 0.15271 -0.28547 -0.2737 0.24406 -0.20055 -0.031922 -0.31277 0.26751 -0.11264 -0.12862 0.58708 -0.11103 0.076612 -0.16722 0.15666 -0.30878 -0.22446 -0.067115 0.31157 0.33302 -0.60318 -0.36887 0.15245 -0.19256 0.69849 -0.085209 0.55821 -0.19813 -0.15251 0.26288 0.17666 -0.15451 -0.6642 -0.45027 0.18163 0.040532 0.08783 -0.14462 0.25041 0.10849 -0.17601 0.18364 -0.080782 -0.012774 0.0057939 0.51966 -0.079592
fear -0.05827 0.07564 0.078864 -0.14298 0.048335 -0.32974 -0.19109 -0.08757 0.050671 -0.060343 -0.52758 0.22765 0.10747 -0.076998 0.19983 -0.36457 -0.2987 -0.19169 -0.37802 -0.24809 -0.33685 0.1293 0.11832 -0.010576 0.10746 0.48758 0.40537 0.2272 -0.76182 0.0060617 -0.0091336 0.053528 -0.60544 -0.21144 -0.30988 0.04835 0.25079 0.069656 -0.32702 -0.32472 -0.11428 0.10708 0.35818 -0.48174 0.32211 0.16666 -0.10438 -0.12818 -0.278 0.041503 0.26103 -0.29474 -0.68362 0.66933 -0.2573 -0.17444 0.13202 0.31338 0.10785 -0.081066 0.12273 0.21571 0.53148 0.25879 0.33919 -0.12015 0.12089 -0.89775 0.017196 -0.30308 -0.10322 0.42964 0.60946 -0.42836 -0.079848 -0.2725 0.027756 0.24528 0.12485 0.29009 0.47317 0.12637 0.34963 -0.21722 -0.024047 -0.016702 -0.074723 0.078721 0.31923 -0.18234 0.27559 -0.23732 0.42036 0.3516 0.18788 0.026009 0.1467 -0.10163 0.23766 -0.49545
surface 0.43274 -0.43511 0.30455 0.35468 -0.32926 -0.43172 -0.19896 -0.23411 0.031423 0.42191 -0.15056 -0.10626 0.17247 -0.099695 -0.13146 -0.30063 -0.17881 -0.63771 -0.23458 -0.02369 -0.16276 -0.017169 0.018116 0.18915 -0.16469 0.0034597 0.21477 -0.0058942 -0.2724 0.58855 -0.013938 0.55232 -0.26092 0.15232 -0.15094 -0.27209 0.081537 -0.39053 -0.099639 0.047756 0.14694 -0.26775 0.054392 -0.10597 0.42605 -0.04957 0.23712 0.74723 -0.24158 0.13661 -0.13064 0.03855 0.34996 0.66555 -0.22609 0.25567 -0.10167 -0.55931 0.80669 0.20456 -0.08199 0.027419 0.39548 0.18601 -0.048379 -0.83106 -0.40589 0.23405 0.3353 -0.22113 -0.050102 0.44345 -0.17336 0.13056 -0.16052 0.4675 0.51616 0.28134 -0.0026805 -0.20401 0.36496 0.16291 0.7735 0.057707 -0.11165 0.2256 0.048883 0.56673 0.36416 -0.14538 0.13113 -0.51657 0.39055 0.22462 0.13082 -0.40807 -0.62354 0.15293 0.28325 0.51383
issue -0.39466 0.30183 0.25 -0.10604 -0.2569 0.19098 0.13234 -0.27529 0.10417 -0.23001 -0.83194 -0.021677 0.18567 0.39059 0.24049 -0.75009 0.0089987 -0.33147 -0.011439 0.023085 -0.34816 0.32601 0.2076 -0.159 -0.10626 0.25397 0.35679 0.27787 -0.016843 -0.20783 -0.033234 0.18165 0.13266 0.32082 -0.57091 -0.93629 0.18754 -0.36645 0.13779 -0.60747 0.14688 -0.15289 -0.19313 0.10608 0.51059 -0.032619 -0.14612 0.41861 0.36081 0.34884 0.087778 -0.46279 -0.1759 0.69148 0.33505 -0.07498 -0.434 -0.22495 5.8842E-4 0.40287 0.13336 -0.21377 0.269 0.08029 0.47245 -0.2822 -0.51745 -0.072282 -0.16251 -0.37952 -0.22941 0.19339 0.084913 0.36831 -0.045687 -0.060636 0.15483 0.15912 -0.17264 0.18837 -0.014992 0.27737 0.0054702 -0.30446 0.49397 0.10363 -0.020094 -0.035887 -0.068724 0.0088282 -0.19391 -0.13014 -0.076266 0.13028 0.19764 -0.50782 0.19099 -0.09366 0.43201 -0.11068
metal 0.014297 -0.23773 -0.06655 0.17378 -0.10829 -0.4154 -0.2632 -0.50151 0.12316 0.17584 -0.011942 -0.26326 0.63372 -0.48496 -0.0048224 -0.47817 -0.40607 -0.37599 -0.4963 -0.85143 -0.44774 -0.37532 0.070531 0.054694 0.030571 -0.61059 0.5635 0.38559 -0.21994 0.30935 -0.6612 0.18704 -0.42791 -0.077109 -0.10719 0.29158 0.46385 0.19499 -0.39681 -0.17093 -0.26417 0.091863 0.39753 -0.33692 0.9027 -0.29621 0.047502 0.29765 -0.36087 0.058714 -0.019747 0.49042 -0.046675 -0.40021 -0.2831 2.0562E-4 0.017526 -0.6218 0.51085 0.35799 -0.16336 0.038069 0.28918 0.1883 -0.25162 -0.67814 -0.64893 -0.49779 -0.3818 -0.27683 -0.075533 -0.26549 0.1075 -0.11158 -0.3706 0.21807 0.56088 0.40506 -0.50895 0.23792 0.53047 0.10283 0.49726 0.50861 -0.199 -0.24227 0.15578 0.10316 0.1099 0.027844 -0.20925 -0.42528 0.26751 0.015804 -0.149 0.09954 -0.090164 0.43965 0.13334 0.092965
